{"layers":[{"out_depth":2,"out_sx":7,"out_sy":6,"layer_type":"input"},{"sx":4,"sy":4,"stride":1,"in_depth":2,"out_depth":32,"out_sx":8,"out_sy":7,"layer_type":"conv","l1_decay_mul":0,"l2_decay_mul":1,"pad":2,"filters":[{"sx":4,"sy":4,"depth":2,"w":{"0":-0.01392787689072097,"1":-0.20042552267940783,"2":0.20675159129610762,"3":0.0948238110148881,"4":-0.20818886243726367,"5":0.21004405400256643,"6":0.14868049773661804,"7":0.054184228044186544,"8":-0.02550366337346893,"9":0.32743581618337136,"10":-0.303976794835589,"11":-0.15859080979946716,"12":0.03545955791061094,"13":0.24565530915043615,"14":-0.0577075580735361,"15":-0.24451097937893662,"16":-0.3866447300384046,"17":-0.027734122463322755,"18":0.009529391039264192,"19":0.44941972274973757,"20":0.037202744146414314,"21":0.1219815766186658,"22":-0.11588033932364403,"23":0.27935637916330835,"24":-0.00949906423663244,"25":0.2734117192320656,"26":-0.16998395308163244,"27":-0.2778772980852477,"28":-0.2148385521102852,"29":0.10453875529554417,"30":-0.3661947745630888,"31":-0.19612605062201868}},{"sx":4,"sy":4,"depth":2,"w":{"0":-0.31803251272272837,"1":-0.14519189526307047,"2":0.19603423795592004,"3":-0.12995346164558338,"4":0.11831737407154615,"5":0.178088284632038,"6":0.10516689661193737,"7":0.24159066174298321,"8":0.255077780738229,"9":0.16517040346326842,"10":0.322850238279209,"11":0.188251122617169,"12":-0.07668512797461009,"13":0.01154685499774036,"14":-0.007211401072595135,"15":0.011246323233145195,"16":-0.08701851904740085,"17":0.10022431969037275,"18":-0.24303068897147384,"19":0.33522896855044926,"20":0.0649712896222864,"21":-0.2214022131330292,"22":0.19416384853166396,"23":-0.3156669956772886,"24":0.1585212729718569,"25":-0.04597355615658009,"26":-0.028527999353038132,"27":0.18907778727449406,"28":-0.1531538896948435,"29":0.21197533633780258,"30":0.20931831619078378,"31":-0.3320108181084405}},{"sx":4,"sy":4,"depth":2,"w":{"0":0.0239112538055697,"1":0.21465199812434305,"2":0.17174468278070573,"3":0.10484920118693603,"4":0.2558669319478296,"5":-0.0032116418330284334,"6":-0.23515793218950384,"7":-0.025756510397721973,"8":-0.0772554486443363,"9":0.05442833666472953,"10":-0.015504241564283672,"11":0.2533850617150895,"12":0.16551130163979502,"13":0.025910918373468553,"14":0.08633850741928101,"15":0.04386595223540928,"16":0.0038142195997653344,"17":0.1552382834639574,"18":0.22250463551651942,"19":0.022135440797941837,"20":0.08630226157072397,"21":-0.03444203946385736,"22":-0.028504240563567387,"23":-0.018375365959605813,"24":-0.0077096016681440106,"25":-0.07753479899989522,"26":0.007082761392724845,"27":0.017655257340188375,"28":0.230689687904113,"29":-0.6036529648347605,"30":-0.15912977367426884,"31":-0.1528672666916224}},{"sx":4,"sy":4,"depth":2,"w":{"0":-0.23491540560212368,"1":0.17503522739831248,"2":-0.02662747735794383,"3":0.18402379176544245,"4":-0.29531062686277904,"5":-0.3297728981724875,"6":-0.45694612063357365,"7":-0.0014570211126377316,"8":0.10121848513747309,"9":0.05110178889660189,"10":0.06635938174354315,"11":0.02551272992919726,"12":0.005321976641429821,"13":0.026031535777232884,"14":-0.032689119690489314,"15":0.08295125077675203,"16":0.14919243689828873,"17":0.07142246169471399,"18":0.06140348304517251,"19":0.13230424145965142,"20":-0.07341870277551457,"21":-0.12331022739564215,"22":-0.2964223843830862,"23":-0.018540972574645327,"24":0.11689611632551959,"25":0.20293531072141216,"26":-0.03802001532283469,"27":0.15261613464863044,"28":-0.05006350556468597,"29":0.4809615500611723,"30":-0.09739347650006216,"31":0.08691632454981774}},{"sx":4,"sy":4,"depth":2,"w":{"0":0.27068786951436385,"1":-0.07546109937168535,"2":0.05751853899805252,"3":-0.1229528423674983,"4":0.1398107095069777,"5":-0.17335781411367818,"6":-0.029605796690804428,"7":0.08650387217030572,"8":0.157944925752418,"9":0.23078884876443795,"10":0.5521104015029199,"11":0.08211077659033654,"12":0.11504522806593134,"13":0.13308369631652905,"14":-0.1188901087400776,"15":0.2470762128499374,"16":0.06765969083838877,"17":-0.14110376628482854,"18":-0.1381064176829913,"19":-0.031601551319314504,"20":-0.019256432788579535,"21":-0.14465877199146182,"22":-0.12649341281752388,"23":-0.09545435708773944,"24":0.06390637414794283,"25":0.07823376482952935,"26":-0.050872503642918065,"27":0.2657295394923023,"28":0.28924192961540973,"29":-0.1773893194698293,"30":-0.038755972347295296,"31":0.05027552801189899}},{"sx":4,"sy":4,"depth":2,"w":{"0":0.12488970728486982,"1":0.3642705688987854,"2":-0.19873638046794131,"3":0.017828112402431717,"4":0.13145160364686231,"5":-0.16289821822639616,"6":-0.36387905999743175,"7":-0.2992432402784958,"8":0.10417712595492881,"9":-0.11095216644137641,"10":0.0730642724875004,"11":-0.08562487495291098,"12":0.04508188764832763,"13":-0.3289771713348135,"14":-0.2193991267895533,"15":0.26765212608219335,"16":0.18258723254377238,"17":-0.2443920959163561,"18":-0.11644411625344138,"19":-0.037525296817959346,"20":-0.04099963718684295,"21":0.017502008764659623,"22":0.3158494715285893,"23":-0.05241844390508632,"24":-0.02703099553195346,"25":-0.10264326419235581,"26":0.19748512743345903,"27":0.1033031432785199,"28":-0.09182970329730758,"29":0.21186121947631117,"30":-0.2699652974024507,"31":-0.18478701162846808}},{"sx":4,"sy":4,"depth":2,"w":{"0":0.05190866703450102,"1":0.3194080618559464,"2":-0.2207331181077384,"3":0.361795579477372,"4":-0.05592023601647488,"5":0.2832742800758453,"6":0.08637871034766693,"7":-0.14029588821942507,"8":0.013301401281739525,"9":0.17913441036857775,"10":0.0637760344378309,"11":0.0632444596434567,"12":-0.028485492150224553,"13":-0.06107890243141285,"14":-0.21467938715968013,"15":-0.0946737891262296,"16":-0.07412806787148901,"17":0.005994875674921527,"18":0.014866107722509677,"19":0.10536055114420081,"20":-0.03380525950414167,"21":0.13285489678916712,"22":-0.1751830130712181,"23":-0.10567595104463122,"24":0.011188895984300786,"25":0.06642854600594442,"26":-0.07215586541585269,"27":-0.23542158979639874,"28":-0.06325119982092577,"29":0.16251679948590056,"30":0.02952676562522005,"31":-0.07388668100680074}},{"sx":4,"sy":4,"depth":2,"w":{"0":0.038245057164525455,"1":0.009749128276771048,"2":0.23368249648866818,"3":0.28454355976131285,"4":-0.04035697806772028,"5":0.1861096221151484,"6":-0.20317168601211025,"7":-0.23411272070960246,"8":-0.04318818938983821,"9":0.04013907489201296,"10":0.12903763104155944,"11":-0.10270020276018475,"12":0.19763229437517454,"13":-0.010583969452247101,"14":-0.39561657298301955,"15":0.1503860364471703,"16":-0.1595635241354465,"17":0.4170628563037552,"18":-0.10437969286700924,"19":-0.14974286966876327,"20":0.05108936994339564,"21":0.07895575695978017,"22":-0.1208866722013735,"23":-0.21366353229516344,"24":0.13514963574457295,"25":0.23636030133445404,"26":0.24718942253678555,"27":-0.014707506668422373,"28":0.06381273009383938,"29":0.08590997698899255,"30":0.16584272577098286,"31":-0.22853835290186086}},{"sx":4,"sy":4,"depth":2,"w":{"0":-0.210186709709846,"1":0.28155094011144405,"2":0.4563502156829881,"3":-0.24055288009345424,"4":-0.29952042921686717,"5":0.05024694530563229,"6":-0.0021819726692387225,"7":0.06196498840283799,"8":0.3019502158019653,"9":-0.09383109210587377,"10":0.06536864576697285,"11":0.41781965941364235,"12":-0.027356990132443897,"13":0.015426332823948794,"14":0.20682215061645948,"15":-0.018326338817221073,"16":-0.12932630300445536,"17":-0.06475310242364583,"18":0.04124646689587242,"19":0.062483925555828115,"20":0.3304252937301702,"21":0.2256929617624208,"22":-0.24596207667770123,"23":0.3258252716721825,"24":0.06266177979376558,"25":0.16322587950895792,"26":-0.14362328293578394,"27":0.3063199350890374,"28":-0.39566112729481195,"29":0.19966204262123266,"30":-0.09628117944571665,"31":0.177603325767039}},{"sx":4,"sy":4,"depth":2,"w":{"0":-0.3024721429955741,"1":-0.16445136699369253,"2":-0.07803375629835743,"3":0.14890065163552457,"4":0.015711501402106393,"5":-0.29974171228840557,"6":-0.018712725613604646,"7":-0.24858313270928045,"8":-0.14716901836403315,"9":-0.22597933796187245,"10":-0.2331960966232252,"11":-0.1104822650250061,"12":-0.09484900022403517,"13":0.17787126893103625,"14":-0.020336330371212765,"15":0.16517155695262864,"16":-0.10812070858470807,"17":-0.48057718557661566,"18":0.1495500714375231,"19":-0.001230280393478666,"20":0.14535394534951832,"21":0.09154284322937836,"22":-0.14219100106915927,"23":-0.10998716388308595,"24":-0.12750369651513896,"25":0.13124702351127054,"26":-0.17028555077862262,"27":-0.16142244080748147,"28":-0.21847981930197177,"29":0.01928233509334759,"30":0.11805079991525434,"31":0.1789930912446599}},{"sx":4,"sy":4,"depth":2,"w":{"0":-0.06584929734803835,"1":0.09934692061205387,"2":0.14229191894182458,"3":-0.29352502258804547,"4":-0.17283944253185285,"5":0.15197792422877907,"6":-0.01283055284464931,"7":0.1816948784434705,"8":0.09535658742313398,"9":-0.2381875003369089,"10":0.0993391872190126,"11":0.021214313257475335,"12":-0.13600509417901405,"13":-0.13506312896804157,"14":-0.014797465986397541,"15":-0.07731800518686287,"16":0.35519619021664006,"17":-0.06427958814668037,"18":-0.1807560389052702,"19":-0.21988058970744692,"20":0.07556360533550571,"21":-0.009655239578590236,"22":-0.018405626164764155,"23":0.3226085595510679,"24":-0.1562789717962377,"25":0.15217961704143293,"26":-0.20342873275127454,"27":0.026831282512507073,"28":0.12252455972628032,"29":0.0025431238110758215,"30":-0.13763668495408482,"31":-0.191821768964704}},{"sx":4,"sy":4,"depth":2,"w":{"0":0.09095794372260109,"1":-0.19406382618682425,"2":-0.3284988029553994,"3":-0.032819479847637695,"4":-0.0701642095378177,"5":0.13340910318179858,"6":0.06722492739649041,"7":-0.17090218039113722,"8":-0.2835387221742171,"9":-0.2739250105777631,"10":0.2361551407421136,"11":-0.09859179752867617,"12":0.06031418042371306,"13":-0.3108086466702231,"14":-0.15504156095266203,"15":0.1330598441158592,"16":-0.09883676045313303,"17":0.3024960185531253,"18":-0.009263318283457991,"19":0.012455910001594385,"20":0.0553181490361893,"21":-0.13877275590556515,"22":-0.055725301811119274,"23":-0.19422090211602505,"24":0.2914428078497178,"25":-0.44332089643450595,"26":0.043856279575697266,"27":0.03648529499558503,"28":0.05658920729937699,"29":0.06269107824786249,"30":-0.0758533817659141,"31":-0.07704048194393177}},{"sx":4,"sy":4,"depth":2,"w":{"0":-0.013663220765250846,"1":0.08408499473271872,"2":-0.2500405179834581,"3":-0.16149315725170016,"4":0.13118246958238566,"5":-0.2279622140861529,"6":-0.024148449169739072,"7":-0.06813515725701907,"8":0.013803098003336248,"9":0.2276915622218222,"10":-0.15769902387140908,"11":0.2468904518080177,"12":0.059085909533116085,"13":-0.20483608641948053,"14":0.10365427344197822,"15":-0.054353582015163424,"16":0.04629941612753035,"17":-0.06287500500172818,"18":0.20028933815832067,"19":0.03398057126971483,"20":-0.16361478501598534,"21":-0.3989823790734431,"22":-0.029015115677128726,"23":-0.1339858687450963,"24":0.16591670547902246,"25":0.060759545994047426,"26":-0.23150081558184604,"27":0.09940637720205008,"28":-0.003780407663023445,"29":0.4194143123891408,"30":-0.276607542945529,"31":-0.3076805197523866}},{"sx":4,"sy":4,"depth":2,"w":{"0":-0.3101913143596865,"1":-0.04871329551403993,"2":-0.1727055274447264,"3":0.0614486974297784,"4":-0.13465589430966685,"5":0.08772188093862157,"6":-0.2967035680385206,"7":0.13898915092354824,"8":0.011374604037169085,"9":0.07743841541993365,"10":0.23998085406758748,"11":-0.061866689014217144,"12":0.00032795045113381355,"13":0.12311575560535905,"14":0.2760126268014112,"15":-0.08888908006849913,"16":-0.043999064170474764,"17":0.007543811614325362,"18":-0.4800646658834045,"19":0.023155353784356437,"20":-0.24974136961994559,"21":0.22126964251176862,"22":-0.033766918107193844,"23":0.1606772278652587,"24":0.017558585047735158,"25":0.04468969108450351,"26":-0.03521781355123815,"27":0.2619852607052708,"28":0.14877780790107034,"29":0.02114529508249897,"30":0.30993277729741237,"31":-0.19394406694741545}},{"sx":4,"sy":4,"depth":2,"w":{"0":-0.17415754447429324,"1":0.2270757764739273,"2":0.38163606594323346,"3":-0.030672200984149873,"4":0.07501086834412668,"5":0.31327777239549126,"6":-0.14185794008283623,"7":0.024429829250653533,"8":0.1995606150536903,"9":-0.05863236718747058,"10":-0.07879126178236578,"11":-0.3936763132931034,"12":0.045365606504035746,"13":0.11133626907654316,"14":-0.29367891756066916,"15":-0.13663998093700225,"16":-0.3407422672676178,"17":-0.05772969415719674,"18":-0.134114870327035,"19":0.09610913223240648,"20":-0.01258494940632674,"21":0.05725183796320406,"22":-0.3849229679954281,"23":0.11204173945869006,"24":-0.017045984717833043,"25":0.15743219221505228,"26":0.1554749519794242,"27":0.15652594453640248,"28":-0.09526435955641882,"29":-0.14203937216219598,"30":0.05794221478808906,"31":-0.018799951329905328}},{"sx":4,"sy":4,"depth":2,"w":{"0":-0.056090835648777225,"1":0.10496622968632134,"2":-0.1093427866258617,"3":-0.011647013262552634,"4":0.05999883297721555,"5":-0.08915176407547203,"6":0.16937408310162108,"7":-0.4037679624440141,"8":0.2175967692743658,"9":-0.286879558383834,"10":-0.25076836108732775,"11":-0.26258186746109313,"12":-0.2776873080677524,"13":0.018993677464997517,"14":0.11306640047706447,"15":0.10694349875453944,"16":-0.25326575226501263,"17":0.08600648803290292,"18":0.09273268334719331,"19":0.1496466379265096,"20":-0.08148379172096945,"21":-0.06643764883546618,"22":0.07218342828129118,"23":-0.0022849161092297165,"24":-0.08027528792915566,"25":0.19735111282082637,"26":0.21059373318618135,"27":0.23432993928930607,"28":0.015630281134669747,"29":-0.060731736938459145,"30":0.1408706094391298,"31":0.1652293868231378}},{"sx":4,"sy":4,"depth":2,"w":{"0":-0.19487870907577354,"1":0.18089720910971185,"2":0.19390675503265292,"3":-0.24482842754684633,"4":-0.032635333663487746,"5":-0.23729620784887948,"6":-0.2746741483502524,"7":0.1690746439244264,"8":-0.4747043822876388,"9":-0.039236347462653115,"10":-0.17150240081532658,"11":-0.09427024463646676,"12":0.007019360525278323,"13":0.06760331371529382,"14":-0.019793483078280306,"15":0.12098650952683389,"16":-0.14783107885683372,"17":0.013037663600677063,"18":0.21424840867284348,"19":-0.04290789245274411,"20":-0.26178103786623896,"21":-0.09230615379590992,"22":0.1155984640700691,"23":0.24602083889226084,"24":-0.04090848009968833,"25":0.05315409511053287,"26":0.03673906936383652,"27":0.02867416104793132,"28":-0.028641723737162797,"29":0.2594938061337318,"30":-0.17070568108566436,"31":-0.10714832990248108}},{"sx":4,"sy":4,"depth":2,"w":{"0":-0.16578644043128224,"1":-0.15681204334506438,"2":0.25434830496438476,"3":0.03404175857975056,"4":-0.12234277067199902,"5":0.14805848877011094,"6":-0.032603404670419354,"7":0.0498719997328206,"8":0.004830603572116878,"9":0.21095414513005636,"10":0.28229396831136483,"11":0.14492664466235608,"12":0.004915467770778879,"13":0.09666164915425295,"14":0.34723155836511954,"15":0.05510248651109597,"16":-0.01881112965055962,"17":0.06729267118431284,"18":0.018416617515736915,"19":-0.39793181825534285,"20":0.16873255611032864,"21":-0.25313960228495364,"22":0.15317665716955947,"23":0.07716081145578021,"24":-0.009028691721451699,"25":0.2380835277004937,"26":0.2109945417122259,"27":0.19598131927311016,"28":-0.04596599021398198,"29":0.08155734546841131,"30":0.07781164013766385,"31":0.10207527446340918}},{"sx":4,"sy":4,"depth":2,"w":{"0":0.22514695380998836,"1":-0.02816264890979208,"2":-0.21071799094942711,"3":0.04433799723144639,"4":0.048963504208909193,"5":-0.17500348081281145,"6":0.04819583406447794,"7":-0.16608232846320273,"8":-0.19044948464877148,"9":0.04133171676061959,"10":0.061546994795837584,"11":-0.00883086279687448,"12":0.31903293476438604,"13":-0.060509110103978615,"14":0.12401324642359397,"15":-0.07072207878301963,"16":-0.09409772285549836,"17":-0.19226155457859678,"18":-0.051542219025892545,"19":-0.2765043402566098,"20":-0.036609510840562604,"21":-0.06834245478880766,"22":0.24832222135591003,"23":0.298620271133834,"24":-0.27043814844822,"25":-0.30134709605089965,"26":0.0016351154626918414,"27":-0.04280181278455975,"28":0.08022799124750479,"29":-0.015503332454052872,"30":0.37877033530745174,"31":-0.03645724784232227}},{"sx":4,"sy":4,"depth":2,"w":{"0":0.2543492751683906,"1":-0.07203056390322436,"2":0.17117212453799546,"3":-0.19755685492878342,"4":0.16391334566244156,"5":-0.13220489126501067,"6":0.42974696672160273,"7":0.019551281444205017,"8":-0.18850408133522897,"9":0.0401266473192763,"10":0.03324752414267147,"11":0.568672455653448,"12":-0.11212912952985271,"13":0.19472888478211342,"14":0.135673393424751,"15":0.07481465200192237,"16":0.11734285627164723,"17":-0.13748811881365255,"18":-0.3129096447088076,"19":-0.09901063549896043,"20":0.3561860705299614,"21":-0.16982836616351646,"22":0.0015213414894365515,"23":-0.040125303665691205,"24":-0.16624994704965945,"25":0.03417411942218583,"26":-0.2178624512723459,"27":-0.062118499129997895,"28":-0.03996081849948027,"29":0.36589335372469145,"30":-0.24798926853700104,"31":0.03761283015525906}},{"sx":4,"sy":4,"depth":2,"w":{"0":0.09379137023457605,"1":0.0069381771080518646,"2":-0.08799242955500963,"3":-0.3012967870479194,"4":0.22386905351831984,"5":-0.23673172544531979,"6":0.15819568152688554,"7":-0.23078361028081218,"8":0.12212109476334745,"9":-0.1875380696822364,"10":-0.11756476235520814,"11":-0.23854694494681905,"12":0.23045726730316632,"13":0.04015520453535885,"14":-0.2914518024795989,"15":-0.13211403950919343,"16":0.060193081890754147,"17":-0.34163612068502064,"18":0.17559203117713443,"19":0.15080640417030022,"20":0.21118932966151227,"21":-0.35424504564056214,"22":0.2036580245446071,"23":-0.09280232301941045,"24":0.35967107716988883,"25":-0.18351026249817592,"26":0.044487758101727316,"27":0.16488250121008488,"28":0.11265832396972206,"29":0.5168476138887047,"30":0.18219621714453876,"31":0.022276834035677606}},{"sx":4,"sy":4,"depth":2,"w":{"0":0.4199111052790798,"1":-0.14339919130738207,"2":-0.08957264246067842,"3":-0.06304143894574245,"4":0.07060188207262194,"5":-0.18053467156393946,"6":0.12575122478524273,"7":-0.13762141868345806,"8":0.11402815381503002,"9":0.04637363489758537,"10":-0.25518360603789886,"11":-0.04291147478019792,"12":0.10247602511108603,"13":-0.21815306063549508,"14":0.042798060824002886,"15":-0.1569170948430699,"16":0.17397853769292593,"17":0.33742924587113615,"18":-0.03863694314125047,"19":0.047869777893862556,"20":-0.0029795257361828857,"21":0.006250937859579813,"22":0.03885992320660279,"23":0.14279920437101393,"24":0.09592226497116627,"25":0.04682498679461412,"26":-0.04203307115041099,"27":-0.05476294384063489,"28":-0.07864466898465294,"29":-0.16484542428994778,"30":-0.02883766937866563,"31":0.1848852812836896}},{"sx":4,"sy":4,"depth":2,"w":{"0":0.04967467223979937,"1":-0.34252480019897413,"2":-0.3452449854202375,"3":-0.12568918006209268,"4":0.06661040488678686,"5":0.1504357993312101,"6":-0.16594180503587513,"7":-0.08033550456445678,"8":0.23340704829799103,"9":-0.009777531316990763,"10":0.326138958406398,"11":-0.2212163246539971,"12":-0.20326172641135834,"13":0.04507734311086996,"14":0.32400163289762474,"15":-0.00006895422102917914,"16":-0.04765354468465789,"17":-0.25062392544661766,"18":-0.16517457893898937,"19":-0.03158795138781434,"20":0.06900772230676494,"21":-0.3143179383914767,"22":0.08437859893452329,"23":-0.09519755783403344,"24":-0.1937661749326093,"25":0.22355320849615978,"26":-0.2043465665061123,"27":-0.06932059450651848,"28":0.061284049151682785,"29":-0.17316473847516253,"30":-0.32193697077567707,"31":0.2169533602413451}},{"sx":4,"sy":4,"depth":2,"w":{"0":-0.05526522134587222,"1":-0.020792293487106886,"2":0.019079581652040243,"3":-0.0008655328818468564,"4":-0.22470893605732412,"5":0.1937048709752301,"6":-0.1315699870266803,"7":0.2708059890830982,"8":-0.035856843148270465,"9":-0.22817665355056246,"10":0.04106516342022731,"11":0.033346747697521946,"12":0.22063269411634215,"13":0.01750515694713622,"14":0.05639162597205294,"15":0.25496340087192954,"16":-0.14862507627055527,"17":-0.03614697197616682,"18":0.07895369891001677,"19":0.05071530340340322,"20":0.08745623740630262,"21":-0.0475431652117526,"22":-0.16228502291969776,"23":-0.04247159164379414,"24":0.11231295004126758,"25":0.19696123357951623,"26":-0.25157370945852836,"27":0.03978183905841242,"28":0.1959453937947968,"29":-0.12997923716178708,"30":0.07790870777271906,"31":0.4179320520417902}},{"sx":4,"sy":4,"depth":2,"w":{"0":0.17336044314315055,"1":0.11863078114344563,"2":0.22461215436830798,"3":-0.14548803489644466,"4":-0.08218531719661175,"5":0.090877096869637,"6":-0.1530735774635179,"7":0.15640573847438619,"8":0.16164264644699441,"9":0.0041985885520243295,"10":0.004159555807790828,"11":0.0074634921023886075,"12":0.18242200829542615,"13":0.020567829188680095,"14":0.005515092321105278,"15":0.15254116422436356,"16":0.18609615993750572,"17":0.34011625076080015,"18":-0.0982342039573862,"19":0.3980276465339266,"20":-0.29400396843581234,"21":0.049347799646924005,"22":0.0676404497020339,"23":-0.10063544630616994,"24":0.024195394606371157,"25":-0.1601223585582276,"26":-0.1401785017801445,"27":-0.30088348276320637,"28":-0.004438841503208659,"29":-0.18575784304318876,"30":0.16830424961564058,"31":-0.013295138144480823}},{"sx":4,"sy":4,"depth":2,"w":{"0":0.12051510643526704,"1":-0.22483232115222407,"2":0.11652905995214871,"3":0.2285432397341282,"4":0.1864877413383272,"5":-0.2681692459839227,"6":-0.056127090379632205,"7":-0.03867798195355944,"8":-0.1323227909937727,"9":-0.1627693946849972,"10":-0.16734900315994816,"11":-0.3581836751205843,"12":-0.3006744631600658,"13":-0.09450698361841113,"14":-0.2522868347704109,"15":-0.17815893972990937,"16":0.2404364111540631,"17":0.2769480809381832,"18":0.003984453249911255,"19":-0.2971352606293343,"20":-0.19882861693430925,"21":0.09021773800536013,"22":-0.09682738122346198,"23":0.2241396112033713,"24":0.004657970361822711,"25":-0.22416222711970815,"26":0.20498062021801947,"27":0.11588472704093097,"28":-0.02262601763304081,"29":-0.11126033131940234,"30":0.16333719277054526,"31":-0.04492446024667888}},{"sx":4,"sy":4,"depth":2,"w":{"0":0.06750691178497502,"1":0.005823774445533765,"2":-0.004017798232729322,"3":0.2600152137932177,"4":-0.012485638290452857,"5":-0.18691714114135768,"6":-0.06694339622602852,"7":0.01801634004003934,"8":0.04080741687369828,"9":-0.04730590867889921,"10":0.04421577510317479,"11":-0.5010120734668183,"12":0.298225060419305,"13":0.40476926211493347,"14":-0.13903637190235496,"15":-0.02593130156594315,"16":0.08703179161623685,"17":0.1041643619073502,"18":0.16195059780127347,"19":-0.12489869572161909,"20":-0.00691865051148452,"21":0.027105799986502945,"22":0.3431225837277246,"23":-0.17270312171923147,"24":-0.28854220506354067,"25":-0.2017393792480979,"26":0.1590553817176749,"27":-0.07138819235344973,"28":0.17402691915125115,"29":-0.015843723814579398,"30":-0.04995462413868006,"31":-0.27393942852519243}},{"sx":4,"sy":4,"depth":2,"w":{"0":0.05045164707169309,"1":0.06477693358796827,"2":0.21107583130929458,"3":-0.012635961571632971,"4":-0.020603157190692754,"5":0.21954409256072271,"6":0.007372879997042643,"7":-0.3593685827411104,"8":-0.05831203279415173,"9":0.05185576107079039,"10":-0.1433473586298212,"11":-0.1080767137350026,"12":0.004112292374876447,"13":0.022114411854011987,"14":0.19954371527675824,"15":0.2797698693626207,"16":0.3126393247863454,"17":-0.1392963952115969,"18":-0.195158042681606,"19":-0.10230210757987981,"20":-0.2597711778121434,"21":-0.14862626570196275,"22":-0.03818796386125686,"23":0.005532671534496927,"24":0.048798944584670316,"25":-0.23339852997838664,"26":0.2575141706968997,"27":-0.11506410692911759,"28":-0.04763529185925497,"29":-0.047153808967078104,"30":-0.14205754079161798,"31":0.16456889361503527}},{"sx":4,"sy":4,"depth":2,"w":{"0":-0.08295999167849043,"1":0.2461010935231236,"2":-0.04884329861367564,"3":-0.058579898340966836,"4":0.25633901403151466,"5":0.2116415070440214,"6":-0.004538462789602654,"7":-0.12362353166982848,"8":-0.035153736336484075,"9":-0.32376285881587125,"10":-0.03425658010155042,"11":0.15710615749518042,"12":0.15691702083419518,"13":-0.10442819796505903,"14":0.09101562765832481,"15":-0.12342261509765766,"16":-0.05712312057779225,"17":-0.052904082857986666,"18":-0.00441556185685504,"19":0.21895765949010138,"20":-0.12837351602708966,"21":-0.13298039692662217,"22":0.08020817679077687,"23":-0.06586788609385377,"24":0.0012440097172756886,"25":-0.09518163830370861,"26":-0.14045501882038072,"27":-0.2061090145085632,"28":-0.04435486144299307,"29":0.36112466020956285,"30":0.05868790931531146,"31":0.04542449386804511}},{"sx":4,"sy":4,"depth":2,"w":{"0":-0.1566174069829201,"1":0.031045721725166297,"2":-0.14405638173769117,"3":0.08107772661496811,"4":-0.3890553148326484,"5":-0.10453373758782247,"6":0.18044735847719734,"7":-0.09764203597986239,"8":0.04498859527816686,"9":-0.11892519007236654,"10":0.11767626370919064,"11":0.24906814694438223,"12":0.07170495557947115,"13":0.14390951531064172,"14":0.08053741530594656,"15":0.0651480856787645,"16":0.1372339234239126,"17":0.01754490277100718,"18":0.04145657743326274,"19":0.2878616759764437,"20":0.059091055478112185,"21":-0.10100006032544197,"22":0.039420966794695644,"23":-0.042725295042826066,"24":0.301262390745551,"25":-0.1340866342545208,"26":0.06270352707385192,"27":-0.08082812093814357,"28":-0.017533203751037646,"29":0.15626275726210948,"30":0.09685232553571992,"31":-0.10206725606908691}},{"sx":4,"sy":4,"depth":2,"w":{"0":-0.19899811938042866,"1":-0.09171581656801005,"2":0.3789039949172785,"3":0.025261945679487127,"4":0.11321460815106373,"5":0.015885893144617042,"6":-0.147347104198124,"7":0.026679904732012892,"8":-0.17950941734426762,"9":-0.09124569311726441,"10":0.14276789621872576,"11":0.11844592912619006,"12":0.09599335325646388,"13":-0.057333957388404036,"14":0.13938099024144604,"15":0.24880331161409927,"16":0.07788437330508258,"17":-0.022504215544154826,"18":0.08878164372249263,"19":-0.4546602588506855,"20":0.08351161368502497,"21":-0.22639311364265208,"22":0.13157191388670939,"23":-0.018151580640137787,"24":-0.029332908626554886,"25":-0.05472299096052212,"26":0.18303695759198654,"27":0.05976252150316301,"28":0.014755167572332922,"29":-0.0759239033296839,"30":-0.3428562910098511,"31":-0.053352366996539065}},{"sx":4,"sy":4,"depth":2,"w":{"0":-0.06840414652792955,"1":-0.06175949746618904,"2":0.11755102392333941,"3":-0.416385255126128,"4":0.008217098971556556,"5":-0.3096770647264362,"6":-0.011547810876347047,"7":0.1430011056270289,"8":-0.19593549788561085,"9":0.07601033123471047,"10":-0.0746390090029914,"11":0.2648638729852762,"12":0.09804807911109197,"13":-0.24026779403077914,"14":0.14400977117439276,"15":-0.00014708829586760025,"16":-0.28623898028481165,"17":-0.05559423528294056,"18":0.1670161162320264,"19":-0.30123228295089294,"20":0.084063770521808,"21":-0.11287209564459566,"22":0.05877230170751872,"23":0.014273331147272531,"24":-0.06348782002023733,"25":0.3527940975739048,"26":0.25397179766347117,"27":-0.5621733632041707,"28":-0.13316271290345055,"29":-0.045115158805244596,"30":-0.3996585056821444,"31":0.005101085577713971}}],"biases":{"sx":1,"sy":1,"depth":32,"w":{"0":0.09211346192360538,"1":0.1006508905007059,"2":0.10594156711484347,"3":0.10195529234373447,"4":0.09088397573546958,"5":0.09825155006457527,"6":0.09621127348501829,"7":0.09998735699257343,"8":0.09382231271796324,"9":0.07960241350974986,"10":0.09149139945292922,"11":0.10286782383597529,"12":0.09410063714699535,"13":0.09405218779916316,"14":0.09500566627403308,"15":0.0884645479463794,"16":0.1095017508194125,"17":0.10425402882563052,"18":0.10344587182480475,"19":0.11140087789774701,"20":0.1071923830389108,"21":0.1007079718549377,"22":0.09898925170306476,"23":0.08674605117760217,"24":0.10012937003090881,"25":0.10552123392835923,"26":0.1112449358822649,"27":0.09819547597650348,"28":0.10656151503537553,"29":0.11236701105389428,"30":0.09561753566139368,"31":0.10145600534388517}}},{"out_depth":32,"out_sx":8,"out_sy":7,"layer_type":"relu"},{"out_depth":60,"out_sx":1,"out_sy":1,"layer_type":"fc","num_inputs":1792,"l1_decay_mul":0,"l2_decay_mul":1,"filters":[{"sx":1,"sy":1,"depth":1792,"w":{"0":-0.012534450330137727,"1":0.033624299568806415,"2":-0.003987998180917387,"3":0.03461928930807377,"4":-0.04253303571209285,"5":-0.025822361485182223,"6":0.015709127734540244,"7":0.022504060038994432,"8":-0.008602624526990342,"9":-0.00974483781076038,"10":0.02241491078919693,"11":-0.011311680819727454,"12":-0.011402467812543908,"13":0.03797703667605786,"14":-0.02993094147972254,"15":0.00509825123801361,"16":0.034996052586848875,"17":-0.004264077939409852,"18":0.0008940783077739844,"19":-0.011435256588669339,"20":0.04375136109870575,"21":-0.015205058956782083,"22":0.011252498651447226,"23":-0.019433363714027187,"24":-0.029867057011084577,"25":-0.0012810168257971078,"26":-0.0158634933149587,"27":-0.012819424790535768,"28":0.012413628211033397,"29":0.0005156021844590948,"30":0.008480604563982662,"31":0.017052065772056563,"32":0.026096898122516185,"33":0.030993870422793755,"34":0.023616539484664887,"35":0.006135570790319066,"36":-0.008700760065552477,"37":-0.0004686629530900562,"38":0.03647735802215514,"39":0.02458126886416866,"40":0.0068215733416068566,"41":0.02260216824406705,"42":0.016449809480358145,"43":-0.05813115320405086,"44":0.04707637779124991,"45":0.02059710120620812,"46":-0.014043485382047699,"47":-0.03491373165571677,"48":0.005402007084990959,"49":-0.02435301861233707,"50":0.03238923518080954,"51":0.007134912934498439,"52":0.012514351766300176,"53":0.019734808476670824,"54":-0.032939751607865934,"55":-0.0071054497924266,"56":-0.013080793350635556,"57":-0.014476861710253827,"58":0.008165012255793446,"59":-0.03222658379461948,"60":-0.016685684284408767,"61":0.008276962344705083,"62":-0.00744004656158787,"63":-0.03260441031367552,"64":0.007819819728539292,"65":0.03841286963411247,"66":-0.004949450706140218,"67":0.019514983592460896,"68":-0.02222464413711536,"69":-0.02158733936714848,"70":0.023618037017710074,"71":0.006985133179045564,"72":0.03981435857098801,"73":0.008624581167120062,"74":-0.013815466915647742,"75":0.016077561764814313,"76":-0.028813929156367827,"77":-0.0036609724264259377,"78":0.02079827718101721,"79":0.0022546749597573985,"80":0.022264542526183515,"81":0.024120680206173754,"82":-0.030544918354444284,"83":0.040539343783502824,"84":-0.03109813162079618,"85":0.030562813109064745,"86":0.028839929634734113,"87":-0.02547507761793188,"88":-0.028304524780018662,"89":-0.015724448112285874,"90":0.021986605982132885,"91":-0.012369030298588777,"92":0.00004704198106387154,"93":-0.013717972867845271,"94":0.008620456322260033,"95":-0.0322200326650431,"96":-0.022159876984722507,"97":-0.006118835008633081,"98":0.03842254262193066,"99":-0.015115402003452799,"100":-0.0023442565609189292,"101":-0.03662950177337651,"102":-0.0033875746730505736,"103":-0.015463586567190773,"104":0.03646048799259256,"105":0.00730311396727265,"106":-0.007777053472764967,"107":0.0013854831646334732,"108":-0.01449987928207348,"109":-0.029717444703221112,"110":-0.02529902150629547,"111":-0.0043736031205635125,"112":-0.05174283703611764,"113":-0.0024866848481794185,"114":-0.0071957943576617,"115":-0.012554224143520462,"116":0.008432837820656684,"117":0.02267241172889766,"118":-0.004083315262415832,"119":-9.60723063398527e-7,"120":-0.009283626849659337,"121":0.015299312018430284,"122":0.04138939460507,"123":-0.019206036877791204,"124":0.022388516764925023,"125":-0.036297142588803816,"126":0.003778610133926391,"127":0.020671817924040714,"128":0.04005791005446221,"129":-0.02846304293579586,"130":-0.007435492696382324,"131":-0.005441544940728088,"132":0.01854891403837496,"133":-0.01861371548570237,"134":0.005589992904313293,"135":-0.023108951004342317,"136":0.0021291693553533607,"137":0.007997850997525877,"138":0.023996920757128466,"139":0.004593863307580621,"140":-0.015072163490185862,"141":-0.011818853910541563,"142":-0.03191506479979196,"143":0.026905254870472472,"144":0.025921451867071375,"145":-0.015451306770057608,"146":-0.025915706915335606,"147":0.005341077968127139,"148":-0.003330873169649372,"149":0.017903653587137452,"150":0.0006737411854627398,"151":-0.02447956459877095,"152":0.018991833890081352,"153":0.02529749768219911,"154":0.01475389918772327,"155":-0.01571127027915905,"156":-0.005188114210073259,"157":-0.015461390579926074,"158":0.02075047702971123,"159":0.03895863337569751,"160":0.004633802727231521,"161":0.0025841286227449222,"162":-0.0008538849836062506,"163":-0.009963620577052844,"164":0.03565110505093024,"165":0.0031805941792531324,"166":0.029379331028931078,"167":-0.026778068770834888,"168":0.00005265374692619531,"169":0.00754360296348382,"170":-0.021790514777461842,"171":-0.010842311617638437,"172":-0.007340177359886134,"173":0.01725382375685973,"174":-0.018575618200199866,"175":0.007446563281049214,"176":-0.015572577240868475,"177":-0.01917020442891378,"178":0.029572453351396237,"179":-0.010407771163738032,"180":0.0011400280969132285,"181":-0.021726286008465902,"182":0.040559602379180965,"183":0.004663402473727532,"184":0.004485404031977925,"185":0.028416796417451835,"186":0.0211884469462402,"187":0.02939448924220973,"188":-0.020444559045551054,"189":-0.031097260609048428,"190":-0.007280191632823227,"191":0.007034682118119367,"192":0.013099816262413475,"193":0.005419550418087244,"194":-0.05207744592063472,"195":0.02421876688370611,"196":0.024619567590222394,"197":-0.011949727440211041,"198":0.007373546984181879,"199":-0.06126266039025275,"200":-0.008184460533047885,"201":0.008410415812566926,"202":-0.004871507490324344,"203":0.005231560923364633,"204":0.010250297709569839,"205":-0.013375064207561745,"206":0.02535500132947075,"207":0.01960716214014639,"208":-0.031354227675927514,"209":-0.013392752083183909,"210":-0.0044501386533115465,"211":0.0019686096654209363,"212":-0.012503780100319264,"213":-0.10000568990554976,"214":-0.022117846885114662,"215":-0.01942874222502821,"216":-0.019901490274075156,"217":-0.03093025357907787,"218":0.00307750577110652,"219":0.020469758749783015,"220":0.01689926998785541,"221":0.010996573163896886,"222":-0.013382702557859595,"223":-0.007003737014197599,"224":0.04638249858994323,"225":-0.0018757207206100406,"226":0.00907601641319369,"227":-0.03580873400606647,"228":-0.013736011060210267,"229":-0.011073174559916726,"230":0.009755009388020604,"231":-0.003137613728188513,"232":-0.03513008596620025,"233":0.017088429009963917,"234":-0.004798068195141245,"235":-0.0008332576481474592,"236":0.012601848695754477,"237":0.019251895758164626,"238":-0.02138601646584832,"239":-0.026797499943540797,"240":0.0010236090445741885,"241":0.023914293251530612,"242":0.014557665583761125,"243":0.0188910539112351,"244":0.015270853755760105,"245":0.007701597166201122,"246":0.004567596037594532,"247":0.024616160912187775,"248":0.010267241126654825,"249":0.03260417065887226,"250":-0.01844954272815868,"251":-0.0038466802562449227,"252":0.009808981058497934,"253":0.043582173448016015,"254":0.024638435387777668,"255":-0.019772079034369994,"256":-0.007023597281522951,"257":0.014553567292709933,"258":0.0034899760328269375,"259":-0.009620744034948952,"260":-0.025607777973219836,"261":-0.03590076420836652,"262":-0.05002921826732052,"263":-0.020141613420788955,"264":0.015672666866349654,"265":0.011583951133100555,"266":-0.00816746218842802,"267":0.008859660993633741,"268":-0.042259723360855934,"269":-0.007271079457570788,"270":0.0015134979038158912,"271":0.011605793902477518,"272":-0.0021715008472884914,"273":0.049852676747902655,"274":-0.0070880145708744095,"275":0.0038003249882848523,"276":-0.01995470367889331,"277":-0.0013402759072111063,"278":-0.037315080288369,"279":0.021883543405460202,"280":-0.004252843186741218,"281":0.03739858883498315,"282":0.037459001642154384,"283":0.015545546556599475,"284":0.03898360917574073,"285":-0.008663400484128688,"286":-0.03051337593064416,"287":-0.05317794916192745,"288":-0.03063093727934042,"289":-0.01887181020729,"290":-0.02828799871546292,"291":0.02119319738503572,"292":-0.008140804028604726,"293":-0.047600467641736546,"294":-0.05289566946745684,"295":0.015077462405431072,"296":-0.042662358662552066,"297":0.017220420189586885,"298":0.005703756631968542,"299":0.005424004112047454,"300":-0.056922623978477416,"301":0.003389508330352565,"302":0.021029109979490045,"303":-0.01775188032021058,"304":-0.008702666804055662,"305":0.011040246859326159,"306":-0.043111200200814166,"307":-0.023601064735416788,"308":-0.002250242282163203,"309":0.024047767596012494,"310":-0.03583326213076816,"311":0.0020592466538464434,"312":-0.017745346796576734,"313":0.018196279494827952,"314":-0.02653601022514826,"315":-0.03143292720525284,"316":0.012546182704525814,"317":-0.03170715199265552,"318":0.02417506896459827,"319":-0.0079490605426737,"320":-0.01582975866499958,"321":0.022607829488480658,"322":-0.007040654405078241,"323":-0.018872492561714544,"324":0.04107858956401105,"325":0.025195229936648342,"326":0.0040702029218228405,"327":0.06810773183741278,"328":0.017431122366019756,"329":0.025577559701122642,"330":0.043467109882473584,"331":-0.009919717337316204,"332":-0.006811305265337475,"333":0.015538849947452235,"334":0.0401862068411984,"335":-0.007083943356816055,"336":-0.0017424588322121368,"337":-0.01571716862666395,"338":-0.0534328504682938,"339":-0.027116180492955364,"340":0.016164755729555228,"341":-0.04393070467686058,"342":-0.0028952166624518828,"343":0.005337073743549105,"344":-0.002996052301199457,"345":-0.004859082847605474,"346":0.00887290978527701,"347":-0.012525197538666705,"348":0.014514604726921393,"349":0.0020213502682070164,"350":-0.030063043474008923,"351":0.01265274135464433,"352":0.013790162764411744,"353":0.022511339818513647,"354":-0.010816707510708956,"355":-0.011060554527701886,"356":0.005557382036401489,"357":-0.044635849293468956,"358":0.009760076901411613,"359":0.03716113490804521,"360":-0.01158306712808996,"361":-0.00007103680872039316,"362":-0.030124017575517633,"363":0.0032184130477337517,"364":0.019148804105431624,"365":-0.02273959224979173,"366":0.03412103831106588,"367":-0.04166210118521352,"368":0.015532033058111875,"369":0.05729550628765016,"370":-0.018420915175600648,"371":0.002235935362677911,"372":-0.06527879878132868,"373":-0.05863380973678627,"374":-0.0023933008368607974,"375":-0.0008294433578806134,"376":-0.0014674556877288345,"377":-0.011045953206932376,"378":0.029703959816132566,"379":-0.022007846112878156,"380":-0.04541341992274308,"381":-0.006882019620624446,"382":0.014604212948295054,"383":-0.015772548413231637,"384":-0.00037542267051360654,"385":0.02201006805836728,"386":-0.022616908186515364,"387":-0.03138564642557879,"388":0.029800995689427737,"389":-0.0015903950896673181,"390":0.02100360314147486,"391":0.003423158041565293,"392":-0.017454271699051088,"393":0.014309958547177763,"394":-0.0024479066417053344,"395":0.014439520259760327,"396":-0.006930992875132228,"397":-0.0004974840263880666,"398":-0.005415936463435482,"399":0.060197115214291705,"400":-0.03172062487135972,"401":-0.045199459161730765,"402":0.04307307700040932,"403":-0.03237178957656067,"404":-0.030592543358564903,"405":0.013986900593506322,"406":-0.013607626079556944,"407":0.021323722960171952,"408":-0.0063102312806531426,"409":0.01757500342034356,"410":-0.046253007325948024,"411":-0.06116453926678777,"412":-0.023968174230131,"413":-0.019883592932240544,"414":0.025145641314848564,"415":-0.011028384195362315,"416":-0.002024022084058337,"417":-0.026723130656608644,"418":-0.001515727367436151,"419":0.003183708078664429,"420":-0.03691018418416317,"421":-0.0214701596786612,"422":-0.005368559710381062,"423":0.004490612969833979,"424":0.039637476158174825,"425":-0.04848138042156827,"426":0.0005274003669189496,"427":-0.0004531934847270846,"428":-0.013076191439117823,"429":-0.005040816843283183,"430":-0.045059657052101736,"431":-0.021468773250487433,"432":0.011676606700554733,"433":0.008517813766065158,"434":-0.02600928061568656,"435":0.036593344021521985,"436":-0.01092474696406934,"437":0.0021621458162525754,"438":-0.02464594281723114,"439":0.005867129428845607,"440":0.008748534323821886,"441":0.017223657657726037,"442":0.016559867390732404,"443":0.021762462915524156,"444":-0.046432593553434924,"445":-0.003651608741452273,"446":0.022551081858172565,"447":-0.009029950906163871,"448":-0.024089856162686198,"449":0.04150177745941637,"450":0.028502810653720144,"451":0.000023451192566743773,"452":0.0009996130761344014,"453":-0.019884296854092036,"454":-0.031684950770629654,"455":-0.030582480555591426,"456":-0.012987539511887268,"457":-0.03504943621346343,"458":-0.02037670612416175,"459":-0.0013066501399657282,"460":-0.0023236754777007764,"461":-0.0014180506021342625,"462":0.004639767199210407,"463":0.00597936772366041,"464":-0.03507494295551992,"465":-0.020896089527754406,"466":-0.04691466788284053,"467":0.013314508820542364,"468":-0.02968092160561141,"469":-0.004309546445098763,"470":0.013477753345889017,"471":-0.008766527194016544,"472":-0.019029339531629146,"473":0.021016189706334395,"474":-0.005521387254753192,"475":-0.01111508737059892,"476":0.011045024761880583,"477":0.0167855355262103,"478":-0.014511045331143266,"479":0.0019419189075872163,"480":-0.013343318193677673,"481":0.0024640522454482576,"482":0.009741072881386575,"483":0.0034924054354587906,"484":-0.017640161055489552,"485":-0.011812364031448986,"486":0.011529105849529696,"487":-0.006976850299500122,"488":0.0117299234833233,"489":0.010994970410017195,"490":0.014099412545753979,"491":-0.02633549367285296,"492":0.02498973775074112,"493":0.019880515963846702,"494":0.017020088793440764,"495":0.012642562435825464,"496":-0.018654292496981275,"497":-0.00813803946397024,"498":-0.008614065152403684,"499":0.014274052060085713,"500":-0.010921013833143188,"501":0.012789480805128178,"502":0.004840234309916581,"503":-0.022332402338792936,"504":-0.02859166062995693,"505":-0.010710013375977257,"506":-0.023415197524038537,"507":0.003723353229664959,"508":0.012892081231962843,"509":0.006375407204492546,"510":0.01063173353905825,"511":-0.011548251735808427,"512":-0.0541558807920119,"513":0.06915877287398144,"514":0.00348257308033094,"515":0.06072117399829691,"516":-0.04840475741220482,"517":-0.05930495779170064,"518":-0.01988106562544505,"519":0.019549107903468407,"520":0.04552034010630679,"521":-0.00527349414515828,"522":-0.06293976565847802,"523":-0.015434133240183551,"524":-0.01433218816003128,"525":-0.027048384690539343,"526":0.0024015533486212073,"527":-0.002707529052414672,"528":0.01142005961360179,"529":-0.016389219696279666,"530":0.038844452962550055,"531":-0.009459830406351134,"532":0.022282153399096536,"533":0.0005602437385946299,"534":-0.027605787231752575,"535":0.005587466816736784,"536":0.013936185925278592,"537":-0.018019639266566995,"538":-0.007129552422628506,"539":-0.016906832609904866,"540":-0.02963753915977443,"541":0.019391455484927083,"542":-0.0328841099337986,"543":-0.000955666182432908,"544":0.050726605062749786,"545":0.010512302861679307,"546":-0.04297740084921026,"547":-0.03581209048472197,"548":-0.02611309823015994,"549":0.00899521726031175,"550":-0.002404287624147515,"551":0.02874952357900126,"552":0.015979235056877594,"553":-0.02430026003208598,"554":-0.041096933422605036,"555":0.006813187656847174,"556":0.005179013562887015,"557":-0.003444293116243261,"558":-0.02835639260281148,"559":0.03219424919674556,"560":-0.014553814553820408,"561":0.012838919962413499,"562":0.027973181603529226,"563":-0.023516904648669498,"564":0.06046023324358236,"565":-0.07531195369973147,"566":0.04344355191602045,"567":-0.020670871808491937,"568":0.006393034119763567,"569":0.001377412218600131,"570":0.014083601490310717,"571":-0.007667761150414923,"572":-0.0008074003843389665,"573":-0.024681032783600544,"574":-0.03869526754955945,"575":-0.014320016697212161,"576":0.05716225010751189,"577":-0.017269613229137885,"578":-0.020297291473097136,"579":-0.05277047024611059,"580":0.007792052362455881,"581":0.03273730148215214,"582":0.031092710482008963,"583":0.026850654327463468,"584":-0.0073972751358054945,"585":0.03009552699074736,"586":0.018410997941742807,"587":-0.018462806257579546,"588":-0.0408583743505434,"589":-0.0172762755766468,"590":-0.030230085515011693,"591":0.01094831311109961,"592":0.005488074166714975,"593":-0.046095426516837415,"594":-0.04570569161412662,"595":0.03631196133266407,"596":-0.006184635895717834,"597":-0.0018160404404338408,"598":-0.01509077095920134,"599":0.012615979965272299,"600":0.008686615529780863,"601":-0.008210874686849931,"602":-0.01144451968944794,"603":0.0057516432738242045,"604":0.00539777045506977,"605":-0.010141462104991958,"606":-0.05668631619094077,"607":-0.01921890753451778,"608":0.017832413173312772,"609":-0.03479355067097403,"610":-0.012920482137998847,"611":-0.016930389158393448,"612":0.0061011655120997545,"613":-0.003995083918973796,"614":-0.034189446736504744,"615":-0.01752911609822355,"616":0.021903465338140103,"617":0.0403811652653784,"618":-0.021361066438358046,"619":0.01780467788497359,"620":0.023549370336548414,"621":-0.017239942836061478,"622":-0.03358919231006867,"623":-0.030948756503405353,"624":-0.02713211265492119,"625":-0.0025037400204636247,"626":-0.000019581884776700274,"627":0.006345322421895447,"628":0.021560261811247115,"629":-0.01493595358358964,"630":-0.01482665352486639,"631":-0.008300120110045502,"632":0.026463805285026024,"633":-0.017632186305451485,"634":-0.014756761056364403,"635":-0.020472249098710153,"636":0.054386753680316924,"637":-0.0006308665097898193,"638":-0.00394368221494682,"639":0.049601670170631766,"640":-0.022752967793231785,"641":0.005895364033317641,"642":-0.011651567913797232,"643":0.01674691769066869,"644":0.025166726340715054,"645":0.01822408955619717,"646":0.0034683272924635076,"647":-0.02868619445840883,"648":0.012763756124924431,"649":0.0031543972577393344,"650":-0.027955430431760877,"651":0.00886122634733028,"652":-0.003400188912227111,"653":-0.003633399822598178,"654":-0.0047870480900188295,"655":-0.014362170408231968,"656":-0.00017773167639917846,"657":-0.002869768492134082,"658":-0.007538970633823616,"659":-0.012960344678267507,"660":-0.02862203385604627,"661":-0.0037079689773907706,"662":-0.016832177677966877,"663":-0.009439683610889886,"664":-0.014518143849419962,"665":0.021704235280091633,"666":-0.022486065160782935,"667":-0.023627035681764986,"668":-0.01858671528685702,"669":0.018763875399663676,"670":-0.0057215052158569885,"671":-0.014151524887748197,"672":0.016738903420801084,"673":0.0049204422719060295,"674":-0.016222183422606253,"675":-0.009821061356844575,"676":0.05263974931255851,"677":-0.005261737709965276,"678":0.00015838180351396551,"679":-0.019297021459037066,"680":-0.011412522925675128,"681":0.010896066679971159,"682":-0.026178371118056057,"683":-0.023844266211298433,"684":-0.03764046854786984,"685":0.013307941253271829,"686":0.0165251715693734,"687":0.019569932140678578,"688":-0.02034843919551268,"689":-0.02200573516324054,"690":-0.006135397098760204,"691":0.016143355536136612,"692":0.04024555086838864,"693":0.01429164216525119,"694":0.004345346552540275,"695":0.01664831970352725,"696":0.019334606462194193,"697":0.011721010216556934,"698":-0.028411598868975957,"699":0.04646145988068522,"700":0.01607278297152836,"701":0.005235835567178786,"702":0.016028400294064642,"703":0.0037769435222502943,"704":-0.000428095976367242,"705":0.03385502415823786,"706":-0.014110272085079176,"707":0.02647239694154919,"708":-0.049874079439313955,"709":-0.012431230748968519,"710":-0.0033501647077730607,"711":-0.005964605125361667,"712":-0.002984144130928524,"713":0.013250531459860215,"714":0.01553551410297287,"715":-0.039496953267303625,"716":-0.03304635342965288,"717":0.016160110722736643,"718":0.011313309517731717,"719":-0.02840463241925404,"720":0.028756504611744376,"721":0.012775014310970348,"722":-0.04207098780955873,"723":0.01592470451230826,"724":0.006879534957848482,"725":-0.0020854408166846366,"726":-0.022621583238570574,"727":0.023166494022628915,"728":-0.015361854645135793,"729":-0.02466962576130161,"730":-0.014362766192826011,"731":-0.027290013101831913,"732":0.0023938323944352733,"733":-0.0005186361810102377,"734":-0.02215091607385382,"735":-0.018393841510089028,"736":-0.01988763767070212,"737":-0.01064709372494657,"738":-0.025759047704416053,"739":0.0385661086340382,"740":0.014218705752192543,"741":0.024160738577873753,"742":0.002205265949572683,"743":-0.02066053348728461,"744":-0.01716913930337087,"745":-0.0077446184136417615,"746":0.03535106716511775,"747":0.004117068469442976,"748":0.04689806629076221,"749":-0.02360566525422471,"750":0.003556564138681275,"751":-0.033843087122980585,"752":-0.015468643059586526,"753":-0.02169157023195771,"754":-0.0020420898795564433,"755":-0.025150095135149177,"756":0.02262918574728941,"757":0.015455242426591633,"758":0.0024273485240730447,"759":0.0174758975901127,"760":-0.05497979419576364,"761":-0.00040449800874686737,"762":0.0009776356379989524,"763":0.006160349158549482,"764":0.02062819178467613,"765":-0.016588888265650054,"766":0.02255978061076243,"767":-0.014733028588740017,"768":-0.013044204187860191,"769":0.01273215330580654,"770":-0.029021605629028967,"771":-0.003582085612205914,"772":-0.007248319710973605,"773":-0.005695779485044431,"774":-0.030990018849702344,"775":0.03416919612266973,"776":0.011200100374262143,"777":0.001352318849236322,"778":0.020024269550365296,"779":-0.004596893953922617,"780":0.02527326146850668,"781":0.015330485781639055,"782":-0.020683787199920704,"783":0.016748419072881913,"784":0.015026270514628695,"785":-0.01598758170171244,"786":-0.008457329849690564,"787":-0.04544567837027581,"788":-0.009272410848554432,"789":-0.004918778165828007,"790":-0.01782657827670698,"791":0.05146768692984632,"792":-0.0008661779058537741,"793":0.03887291890191938,"794":0.02890164223061422,"795":0.03090707254144938,"796":-0.005299814409495119,"797":0.018160317741668788,"798":-0.020565513034523513,"799":-0.00018869289815515262,"800":0.011634506016172136,"801":-0.034677737683166523,"802":0.0062473154733522565,"803":-0.00046620809969026745,"804":0.0016327816811214128,"805":0.011767093101500556,"806":-0.01309154282822839,"807":0.021908246208924568,"808":-0.04633495203417041,"809":-0.01830541357380115,"810":0.022067186139911644,"811":-0.005664845032385226,"812":0.0043963529366529185,"813":0.032882645689184684,"814":-0.051877011992129726,"815":-0.0011151081249358998,"816":0.020108641633584907,"817":-0.019600899664660654,"818":0.025344754435330154,"819":0.013889647265485944,"820":-0.016229830070935855,"821":0.011809247829903063,"822":-0.01966767342319098,"823":-0.03440794661444445,"824":-0.023898460651028963,"825":0.013329707740624327,"826":-0.03254862103996312,"827":-0.009737862991154223,"828":0.028344872376771545,"829":0.015043441711713425,"830":0.019862468843334927,"831":-0.011870806817584555,"832":0.03042396816557223,"833":0.040853535695022675,"834":0.03668846878001625,"835":0.0003475035599899446,"836":-0.04712101415439011,"837":0.005929514648469602,"838":-0.03296682329328323,"839":0.0018735142110274938,"840":-0.035073132668413845,"841":0.013089551943144546,"842":-0.01957608913307217,"843":-0.028898123294106067,"844":-0.0015161060767062212,"845":-0.030833253130415322,"846":-0.005096192593594663,"847":-0.024521123901944428,"848":0.0038899091600163326,"849":-0.013914188462530397,"850":-0.013996617413030382,"851":-0.015226446962806455,"852":-0.023200719868718953,"853":0.02787960896297315,"854":0.00470476682678533,"855":0.007830682635202193,"856":-0.002126873116799131,"857":-0.0378941271304486,"858":0.0031429886693007257,"859":-0.004757160550307619,"860":-0.0001719961719508868,"861":0.031338744241315504,"862":0.01638144260757289,"863":0.01038980247705739,"864":0.039541819947322275,"865":-0.005485834309469893,"866":0.023774764504592663,"867":-0.03917785477297937,"868":-0.02741686052059144,"869":0.025265873306572307,"870":-0.005932238457310711,"871":0.019134280501386946,"872":-0.034981907370343054,"873":0.002124779920069106,"874":0.023544057513404597,"875":0.023242329447727778,"876":0.0004031130985909086,"877":0.009543708203765574,"878":0.010032862213622675,"879":-0.003034936898197676,"880":0.02946773261113954,"881":0.005772388162046983,"882":-0.000947576423661893,"883":-0.058323410349630914,"884":-0.03654651212851574,"885":-0.048315378662875726,"886":0.01573490649531455,"887":0.019220419525338605,"888":0.01480940332457605,"889":-0.001532539421311321,"890":-0.010130449218163933,"891":0.043430869451843705,"892":-0.0059769194113099425,"893":0.029601276731219962,"894":0.0005238884950444371,"895":-0.011796889657927825,"896":0.014974708631263397,"897":-0.061143669316225495,"898":-0.02781547197719125,"899":0.008733398082327386,"900":0.037200553341480036,"901":0.018269616346628083,"902":0.04793549532656556,"903":-0.005578590757885111,"904":-0.003958909763601164,"905":0.04334965684896091,"906":0.019211399939842444,"907":0.03309685751901637,"908":-0.018177124949124972,"909":0.021979670866479666,"910":-0.017710619569018916,"911":0.005908556667305142,"912":-0.03000730501093924,"913":0.03579183836790973,"914":-0.018062963253064612,"915":-0.0034687993822449838,"916":0.023525363918143322,"917":0.008031668418183023,"918":-0.03502296341394873,"919":0.00017701741533254311,"920":0.00426400916257826,"921":0.01823292831684648,"922":0.01440888205664783,"923":-0.004292096889955731,"924":-0.024664868181111434,"925":-0.01504939852224697,"926":0.0231470440126777,"927":0.05191484372060035,"928":-0.022646678532261506,"929":-0.03382390693307559,"930":0.022515085335698334,"931":0.01574099114596995,"932":0.05015155720001028,"933":0.020059316841386666,"934":0.015347863215575488,"935":-0.017385639206299205,"936":0.02892469275923693,"937":-0.009120313537978307,"938":0.0012786235067541194,"939":-0.018143320437314543,"940":-0.022039126722681084,"941":-0.041438874680240795,"942":-0.008661264091213471,"943":0.038352778384876045,"944":0.05344984465271553,"945":0.014889640855277119,"946":0.06091428730965112,"947":0.0062890988367416715,"948":-0.012600182188243509,"949":-0.031859728941745186,"950":0.009134781205371992,"951":-0.022549514732882792,"952":-0.001966001437232011,"953":-0.03416743633353853,"954":0.0028380804830016896,"955":-0.015612192368363477,"956":0.0035251149132295933,"957":-0.024612709678132446,"958":-0.006839900166360211,"959":0.0037053636521739903,"960":0.016613757189100888,"961":0.004348491579408815,"962":0.06760758806562538,"963":0.016844772450804624,"964":-0.054558521962664155,"965":0.020692097251012176,"966":-0.018244446985061974,"967":-0.006297714366506486,"968":0.016777676451754556,"969":0.01953330253500359,"970":0.007743178498044299,"971":-0.0007399977878976304,"972":-0.0076852949904811126,"973":-0.0350914471125258,"974":-0.02315073597845728,"975":-0.0017826522826308894,"976":-0.005075005696334904,"977":0.004261574907509584,"978":-0.030801839961965314,"979":0.014313241321287948,"980":0.000905527434975805,"981":-0.011195823240522962,"982":0.0017598214255695375,"983":-0.02773478403473601,"984":-0.0189984887146343,"985":0.013256926445183446,"986":0.029861153126739128,"987":0.014328844993832218,"988":0.01779134674289755,"989":0.007468002582121923,"990":0.04496428994543744,"991":-0.012922490846220115,"992":-0.01859502287385256,"993":-0.025695859493444825,"994":0.06241752433804246,"995":0.04795872694673229,"996":0.006544590724580356,"997":-0.016777661499043584,"998":-0.01674115285357476,"999":0.014359288620062435,"1000":-0.005944449336510402,"1001":-0.025863549533741294,"1002":-0.0077631982221773,"1003":-0.02514096823463841,"1004":-0.006038327604196015,"1005":0.012772114239571647,"1006":-0.00039438695692491847,"1007":0.0006234156457612159,"1008":-0.02529324949720035,"1009":0.022502214171034356,"1010":-0.015649817168895606,"1011":-0.043032654816080054,"1012":-0.06642479999572445,"1013":0.026531900505711924,"1014":-0.016966473332508586,"1015":0.017588519230121318,"1016":0.04280159374189022,"1017":0.014753172543824312,"1018":0.013260049140937953,"1019":0.002245199618960578,"1020":0.05732143368284099,"1021":0.05908732979231784,"1022":-0.01406528791109197,"1023":-0.06627079823344849,"1024":-0.0045381925132158656,"1025":-0.007971657483803346,"1026":-0.02240100124348823,"1027":0.0178804435445411,"1028":-0.006183229177513948,"1029":0.002573861068409656,"1030":-0.031944936450675664,"1031":0.008306968780719348,"1032":-0.0181293973015385,"1033":-0.015023269917925606,"1034":-0.02887300411018017,"1035":-0.008103785542014007,"1036":-0.008570163939675633,"1037":0.008747076430637072,"1038":0.014016028263447743,"1039":0.003303029948457237,"1040":0.008557562527576223,"1041":0.047600983616715165,"1042":-0.004996294881889054,"1043":0.007489191251843214,"1044":0.009275025477193333,"1045":0.0006277229190457349,"1046":-0.012865602728755806,"1047":-0.014690327391784748,"1048":0.01477822601833097,"1049":0.03397469705411914,"1050":-0.01921693567824582,"1051":0.00940233165240609,"1052":-0.035859022045289825,"1053":-0.019468825105695742,"1054":-0.020072857430056976,"1055":-0.001565949174104382,"1056":-0.0361943697715578,"1057":0.021145319965602736,"1058":-0.0045033170661505474,"1059":-0.023617205297416163,"1060":0.037371983517185146,"1061":0.018397524801614988,"1062":-0.00790638954822853,"1063":-0.02438061380717806,"1064":0.001340620614235013,"1065":0.007528654525923086,"1066":0.028047223536607012,"1067":0.0005645994922090594,"1068":-0.005559579275162356,"1069":-0.017249236288847534,"1070":0.004848192615255595,"1071":0.006229509264315721,"1072":0.009886967939053666,"1073":-0.047319149021996215,"1074":-0.005517545559958634,"1075":-0.020232254159657286,"1076":-0.0271240603232483,"1077":0.007082877351984433,"1078":-0.00966357898494799,"1079":0.01662401252913574,"1080":0.005805347255454139,"1081":-0.021115389903214727,"1082":-0.009317267795023626,"1083":0.025712365331178034,"1084":-0.027313822436108498,"1085":0.01624932490501326,"1086":0.0004031442781736997,"1087":0.005640588693857478,"1088":-0.013767943156693111,"1089":-0.0027362986491072565,"1090":-0.006707623387108384,"1091":0.06091005895203357,"1092":-0.0033131384067614784,"1093":0.007128296183693495,"1094":0.014691642687074688,"1095":0.04082785131804914,"1096":-0.04056511943825156,"1097":-0.02341855500495876,"1098":-0.03093184997093477,"1099":-0.0038028814458346905,"1100":0.001208123052591364,"1101":-0.005458739396714205,"1102":0.008842465696849515,"1103":-0.0176992321497201,"1104":-0.0032603563383070537,"1105":-0.033054309887270636,"1106":0.028839493521559983,"1107":-0.027579196531483427,"1108":-0.0011137352180559366,"1109":0.001808005090333187,"1110":0.04031904550076002,"1111":0.02430448298042169,"1112":0.007355353156945012,"1113":-0.038228211446353966,"1114":-0.04174075679002732,"1115":0.02338340674017378,"1116":-0.007996738136956994,"1117":0.007208701760392458,"1118":0.0034615532684836984,"1119":0.0088687338839913,"1120":-0.007781097107854863,"1121":-0.004645947517652394,"1122":0.011471816444720286,"1123":0.01668388397518356,"1124":0.010403278349485066,"1125":0.014152731379504105,"1126":-0.04205586794196497,"1127":0.016997103126925987,"1128":0.04379059726933845,"1129":-0.006471656838997639,"1130":-0.03228094980984148,"1131":-0.007750035942851153,"1132":0.014181859921602638,"1133":-0.019470615935926822,"1134":0.006563573816127223,"1135":0.03733713456631257,"1136":-0.024386112777193783,"1137":0.05644862889463232,"1138":-0.023916070051147438,"1139":0.019974278880698543,"1140":0.0379820369450026,"1141":0.04285500997451493,"1142":-0.011796246643265718,"1143":0.018004937765005606,"1144":0.029537755744845667,"1145":0.005226206041610205,"1146":0.016745104642176226,"1147":-0.023903646197990396,"1148":0.01347029557849572,"1149":-0.004489572416465448,"1150":0.026376764485603436,"1151":-0.0019085630777155986,"1152":-0.009938581782002591,"1153":-0.022111185495259866,"1154":-0.030313937736225226,"1155":0.0013222016059143788,"1156":0.001279749149071579,"1157":-0.013844052190788665,"1158":-0.0023078759734264987,"1159":0.018074838669462072,"1160":0.024942852157342352,"1161":0.0062018666469676725,"1162":-0.0015932191132624611,"1163":-0.02596975816155235,"1164":-0.019109798528051933,"1165":-0.021962697635272293,"1166":0.02279568845130673,"1167":-0.026854481490465598,"1168":0.01574283181829168,"1169":0.009384366716745413,"1170":-0.007293215707210618,"1171":0.02895496014972474,"1172":0.01655678707006478,"1173":-0.009476909551610195,"1174":0.0012811024580497822,"1175":0.027026067247732894,"1176":-0.03596488556391,"1177":-0.04029226013356933,"1178":0.02240637444185057,"1179":0.00614490712985419,"1180":-0.0006596351340049878,"1181":-0.02773543717812401,"1182":0.03022360575159132,"1183":-0.03608147222246969,"1184":-0.024371325317686397,"1185":-0.004725829369088183,"1186":-0.031579008658311654,"1187":0.01647692950032188,"1188":0.01900053128721042,"1189":0.033840931044562095,"1190":-0.005612532492604141,"1191":-0.003378056589117948,"1192":0.016559407176872733,"1193":0.030527488685215987,"1194":-0.052900428089746626,"1195":-0.006380834042919766,"1196":0.012008211525244153,"1197":0.0036011587734743563,"1198":-0.027943076772778384,"1199":-0.0011642588959649438,"1200":0.014809276043656203,"1201":0.005064651221948339,"1202":0.02722505291722868,"1203":0.01836584714930358,"1204":0.008080825279894892,"1205":0.014212531652612976,"1206":0.005425100835830567,"1207":-0.013582236044158189,"1208":-0.0033597197078588364,"1209":0.011418111437277284,"1210":-0.033435799715356755,"1211":-0.011215554677467697,"1212":0.012396278788344412,"1213":0.007331045163792897,"1214":-0.025522797524829836,"1215":0.009989980205245896,"1216":-0.02367338006697225,"1217":0.007100084382701659,"1218":0.01307498643984024,"1219":0.033209893045114576,"1220":0.0062666295833113525,"1221":-0.01289132722897792,"1222":-0.004138841205797599,"1223":-0.005663243262526055,"1224":0.0027221913816654294,"1225":0.003961264744647778,"1226":0.02059704304600331,"1227":-0.017656347723991266,"1228":0.01628373650584503,"1229":-0.05926181968136454,"1230":-0.022574134086591237,"1231":-0.012164153975581772,"1232":0.02569114691437238,"1233":-0.03661268396060058,"1234":0.031618317263692866,"1235":0.01681833696828898,"1236":-0.023935655237356936,"1237":0.03700382036234963,"1238":0.042718580034385736,"1239":-0.014326519668361976,"1240":0.025490884425175442,"1241":-0.018000254505211418,"1242":-0.013813365741536372,"1243":0.0056477660497493065,"1244":-0.012166445240266622,"1245":0.005148049681492698,"1246":0.026120626489472838,"1247":0.00135984136492347,"1248":0.016758787399420796,"1249":-0.006189731674798347,"1250":0.028885280396186014,"1251":0.03356700669605794,"1252":-0.016088145384985115,"1253":0.01500150970468233,"1254":-0.0018559371897120685,"1255":0.006848893349484691,"1256":-0.014624221476090297,"1257":-0.010480351579475751,"1258":0.0018967009265894892,"1259":0.02098835434745026,"1260":-0.02152203286498375,"1261":0.018358685762182858,"1262":-0.013238778020436973,"1263":-0.006486332849439469,"1264":0.014778100432933643,"1265":0.038514097962311415,"1266":-0.036706115000523246,"1267":0.027657652472789923,"1268":0.004497304187850055,"1269":0.00004026906278942211,"1270":0.01134893015171836,"1271":0.017560964191934966,"1272":0.03572217730072022,"1273":-0.01254800924099682,"1274":0.030424579728209614,"1275":-0.023145805011036566,"1276":-0.0255684951004631,"1277":-0.011857805107149427,"1278":-0.0026244704412069853,"1279":-0.00026096439933107887,"1280":0.019890377683357656,"1281":-0.01739422731075609,"1282":0.0034272557760598567,"1283":-0.03958378963883911,"1284":0.011494760165098657,"1285":0.014502153567457645,"1286":0.009458937683243272,"1287":0.003938855037942545,"1288":0.007324580435226874,"1289":0.021453880876104458,"1290":0.026457675969247533,"1291":-0.012615780697504632,"1292":0.007543698528598666,"1293":0.028005454062512945,"1294":-0.041827818340839526,"1295":0.03144194939346782,"1296":-0.03290891471130406,"1297":-0.009965932339413414,"1298":0.007984876684531104,"1299":-0.007092670593588428,"1300":0.006603551811128125,"1301":-0.027023792688575042,"1302":0.00677126350863104,"1303":0.014082292644650388,"1304":0.05393566151775913,"1305":-0.012927188133679112,"1306":0.01929933927662093,"1307":-0.016854823454862538,"1308":-0.024140655936689844,"1309":0.017873599574995427,"1310":0.014531509787993724,"1311":-0.001537297916718471,"1312":-0.004182742776935655,"1313":-0.0017659832617595952,"1314":0.0033677914458735006,"1315":-0.00888430320153991,"1316":-0.004668201304403644,"1317":-0.003182657467537629,"1318":0.006346870559910275,"1319":-0.022114700052011195,"1320":-0.017994472264373475,"1321":-0.040772540127629875,"1322":-0.05736170808108551,"1323":0.008058018994989383,"1324":0.007321089157782684,"1325":-0.00573761697188293,"1326":0.04194080077811502,"1327":0.006509358905550473,"1328":-0.008217485413550198,"1329":-0.041021046480050186,"1330":0.048084740651928456,"1331":-0.01577158042526207,"1332":0.0034903394656752235,"1333":0.015485153565032227,"1334":0.0390723332870538,"1335":-0.008542557075307784,"1336":0.002484500002313433,"1337":-0.002834006357521042,"1338":-0.0322419373428535,"1339":0.0029051212151762536,"1340":0.015145599796295426,"1341":-0.0016798104270761747,"1342":0.012425297289301888,"1343":-0.018968118359277118,"1344":-0.023516618668893537,"1345":0.05052735423412433,"1346":-0.008632319815732663,"1347":-0.0037457253489996587,"1348":0.0004955343978542771,"1349":0.009125214890538873,"1350":0.0024653062025732186,"1351":-0.008502515573818812,"1352":-0.023856059616441393,"1353":-0.025358791768308606,"1354":-0.0525474727781776,"1355":-0.006149748810589198,"1356":0.013801097055460582,"1357":0.02288926775821587,"1358":-0.03214499766919334,"1359":-0.0018497148290492849,"1360":0.04606493065158659,"1361":-0.023475518307297136,"1362":-0.0027313156902513754,"1363":0.0062644695208031375,"1364":-0.05090715556765846,"1365":-0.019152513963490967,"1366":-0.005999358091632221,"1367":-0.021888274691143298,"1368":-0.005573812947464467,"1369":-0.039986104528410414,"1370":0.015564942394147577,"1371":-0.08625971147581005,"1372":0.005449926321768707,"1373":0.016436829956356994,"1374":0.019939139022914373,"1375":-0.005487222285457424,"1376":0.046019983258472875,"1377":0.015514986711031699,"1378":0.00170682001106268,"1379":-0.01746642409841697,"1380":0.03181719895568896,"1381":-0.030389862766945126,"1382":0.01624098063335949,"1383":0.007808575074236595,"1384":0.009614554256084321,"1385":-0.007563143461340726,"1386":-0.008501983146278168,"1387":0.022816239840796032,"1388":-0.014863130775706973,"1389":-0.005580765121310775,"1390":0.02977957039860015,"1391":-0.004622005638152627,"1392":0.020213204859348178,"1393":-0.0016284058481547895,"1394":0.006025032671939205,"1395":-0.0268927532727168,"1396":0.015168525863353747,"1397":0.01713958444569031,"1398":-0.010260150234864849,"1399":-0.032913357953754815,"1400":-0.013751697318821155,"1401":0.009384300201004022,"1402":-0.007965579132287421,"1403":-0.013934881230649423,"1404":0.009848517691750344,"1405":0.03195490065607281,"1406":0.0015445245319499373,"1407":-0.021869705874490632,"1408":-0.01264528001505569,"1409":-0.02705420290728341,"1410":0.013675901292436165,"1411":0.003554921993871731,"1412":-0.033689909522660245,"1413":0.002214039361864525,"1414":0.022372699148327454,"1415":-0.028104625840986462,"1416":0.02295139717288421,"1417":0.0035750659872769326,"1418":0.003084362448272773,"1419":-0.04289965868735422,"1420":0.02013956700055943,"1421":0.007468156172121435,"1422":-0.03222225020289712,"1423":-0.005300811627566935,"1424":-0.03670197141553122,"1425":-0.010953411117013836,"1426":-0.006736894636468281,"1427":-0.0350041835971506,"1428":0.027371478780466144,"1429":0.011373792345442736,"1430":-0.025146863852967095,"1431":-0.025337114497960483,"1432":0.011538734426614104,"1433":-0.005749314525067834,"1434":-0.010997251774976246,"1435":-0.007554175621864547,"1436":0.00475355491616135,"1437":-0.010810833985874213,"1438":-0.01573895850329035,"1439":0.011887705790233818,"1440":-0.0019436015558486437,"1441":-0.02017386846275508,"1442":0.00009058128263669532,"1443":0.008149636609273458,"1444":0.00919229513498585,"1445":0.003151109618792764,"1446":0.027554949716391726,"1447":-0.012534288392505618,"1448":0.011922489497098338,"1449":0.033490254611447876,"1450":-0.0168240153576125,"1451":-0.009332301375170453,"1452":0.04321217992164918,"1453":-0.01997349509958255,"1454":0.06384579726760077,"1455":0.004015525426908789,"1456":-0.018336265658758785,"1457":0.055077916793588894,"1458":-0.04338299115493675,"1459":0.004417167635160768,"1460":-0.008209153975951046,"1461":-0.034999377377043395,"1462":-0.008284264010705764,"1463":0.03440487355519853,"1464":0.012413928985808982,"1465":-0.03202692701896674,"1466":-0.01861981277962425,"1467":-0.0339070411225801,"1468":-0.07236873830372055,"1469":-0.019278330316298907,"1470":-0.01726000259166531,"1471":-0.0096334435003579,"1472":0.008421639446467458,"1473":-0.03545130663045261,"1474":0.0019066682012054404,"1475":0.030543152653428877,"1476":-0.04363996714665997,"1477":0.03751606959286779,"1478":-0.01723272065808257,"1479":-0.021045736976144678,"1480":0.017431922770867525,"1481":-0.025145202448444544,"1482":-0.0122088442052296,"1483":-0.00884436551511328,"1484":-0.015276323756419068,"1485":0.01070201120569514,"1486":0.016952778104294384,"1487":-0.03345142987719162,"1488":-0.032506621801273554,"1489":-0.022235150700718815,"1490":-0.008267369457301603,"1491":0.04485208862000651,"1492":0.0013104987557333355,"1493":-0.005953673431792301,"1494":0.01814845852214901,"1495":0.0161906746554049,"1496":0.020894709570597633,"1497":-0.012113187507147568,"1498":0.022949703122747557,"1499":-0.005898825894511868,"1500":0.03617522373645653,"1501":0.016214342090732074,"1502":0.008508563812697673,"1503":-0.040209594391683506,"1504":0.021044365617184924,"1505":-0.003832870369877905,"1506":-0.016294945909370584,"1507":0.010011941517462866,"1508":0.03172194942632213,"1509":0.016860125691972185,"1510":0.0008877820088042525,"1511":0.029681765232666267,"1512":-0.03346267107311924,"1513":-0.03094841288018203,"1514":0.0063355951605278205,"1515":-0.015173502522016536,"1516":-0.03348803705604596,"1517":-0.008130141235853285,"1518":0.02500743370587568,"1519":0.009994509993998962,"1520":0.022504805783390664,"1521":-0.005416537807735698,"1522":-0.026813411339192666,"1523":-0.045628952480888635,"1524":0.0049636153604533115,"1525":-0.03857897844425684,"1526":0.03621384652903801,"1527":-0.01844042201142506,"1528":0.018725112263985905,"1529":-0.018538149528523066,"1530":0.010206566073758394,"1531":-0.02193699237607139,"1532":0.018355737975633328,"1533":0.004706100291890956,"1534":0.001010574009830956,"1535":0.043138906875983735,"1536":-0.019595371124745034,"1537":-0.0248972535018583,"1538":-0.014748882967588908,"1539":0.02288134254760463,"1540":0.02854763639129712,"1541":-0.02477660625691914,"1542":-0.0018447827912261734,"1543":-0.07307451792175629,"1544":0.027660346519676738,"1545":-0.0027959071187548205,"1546":0.001539198710173531,"1547":-0.01704002845178626,"1548":0.002957480535907696,"1549":-0.028416329396189908,"1550":0.042316499279748135,"1551":-0.008112599149379366,"1552":0.04798662614919633,"1553":-0.02387703774087435,"1554":-0.014107895239520298,"1555":0.014957098612140885,"1556":0.003635309918201001,"1557":-0.01626210288521519,"1558":-0.02143156611856531,"1559":-0.0009571728659661946,"1560":0.010316008823207492,"1561":0.037935756018973,"1562":0.005794261801078764,"1563":-0.009286572580614829,"1564":0.017355168605119372,"1565":0.04427333824890067,"1566":-0.00814368056411978,"1567":-0.021899193004038288,"1568":0.018673688039641985,"1569":-0.0162918112523714,"1570":-0.006828283324291585,"1571":0.009516842774641784,"1572":-0.011178857090492385,"1573":0.0020596485495926664,"1574":0.016379746153940843,"1575":0.003816299699691618,"1576":0.015149166694345515,"1577":-0.009846365618105405,"1578":-0.025223832089296353,"1579":-0.032663528515582,"1580":-0.009666841673950509,"1581":0.013556811404871135,"1582":-0.004062375726039513,"1583":-0.004764578105888987,"1584":0.01658051123871216,"1585":0.050378244170025954,"1586":0.001845003417172801,"1587":-0.01540420332707325,"1588":0.003920185450552089,"1589":0.001795409409627861,"1590":-0.02137412506084445,"1591":-0.016807177501223472,"1592":-0.011445928751035173,"1593":0.026080638115995987,"1594":0.002343854185452326,"1595":-0.031142186233561603,"1596":-0.025126169408945326,"1597":-0.01401731168325664,"1598":0.036547743500684994,"1599":-0.02129856749082314,"1600":-0.013282543821678672,"1601":-0.0007646464657291486,"1602":-0.019263860120157,"1603":-0.0187809785835693,"1604":0.0013939026519577465,"1605":-0.005524522320952781,"1606":-0.00906716498972247,"1607":-0.06471180113816713,"1608":0.014710808803770127,"1609":0.0008176601170828409,"1610":-0.012083524430419006,"1611":-0.002208990949604121,"1612":-0.02963841177577581,"1613":-0.02099318010760794,"1614":0.02080704140142081,"1615":-0.004260192508600442,"1616":-0.008889867742741347,"1617":-0.019112369733512612,"1618":0.024943810162116525,"1619":-0.014138732363800541,"1620":0.029675862361474944,"1621":-0.028511054835621254,"1622":-0.02208252288952944,"1623":0.009727168054986373,"1624":-0.014605373970785662,"1625":0.0003770361921371175,"1626":-0.007194193174697746,"1627":0.00891062995904312,"1628":0.010759466167357021,"1629":-0.009507767926847183,"1630":-0.0037097125110108825,"1631":-0.00155679710870243,"1632":0.029535037731028276,"1633":0.0001319662267202763,"1634":0.013619183679048397,"1635":0.0232744471240928,"1636":-0.006630667143059887,"1637":0.004474265221183485,"1638":0.010079284537829398,"1639":0.01893793372620805,"1640":-0.015175461490310585,"1641":-0.018107214334197104,"1642":-0.0605197013305298,"1643":0.0034820617216079004,"1644":-0.007393874823634241,"1645":0.008858827999407019,"1646":0.025231461261603222,"1647":0.020739394137102313,"1648":-0.003165060313013454,"1649":-0.03902902506255788,"1650":-0.019739680987408303,"1651":-0.007119153388271284,"1652":0.00777270467542936,"1653":-0.012026404190484435,"1654":0.013431389112764267,"1655":0.009839799892326726,"1656":0.033532431632100186,"1657":-0.01530229232216793,"1658":-0.022034721392455325,"1659":0.014265866188368061,"1660":-0.0838482604244988,"1661":-0.03556282104436143,"1662":0.015573997121739205,"1663":-0.0014584124328419139,"1664":0.020000554192054442,"1665":-0.007829105223371817,"1666":-0.01879916490668625,"1667":-0.0008111532918527526,"1668":0.02267838846893973,"1669":-0.026340102506746708,"1670":-0.0013716336417207067,"1671":-0.0013355180312883633,"1672":-0.004704656682909616,"1673":-0.007584458306997844,"1674":-0.014371645960783361,"1675":-0.008565191132625114,"1676":-0.00914767729203997,"1677":-0.004678994668083995,"1678":-0.012330903941556734,"1679":-0.016517265137618656,"1680":-0.0058957890361666454,"1681":-0.02709695906757328,"1682":-0.020699931128361482,"1683":0.048907055564782836,"1684":0.02036936309839157,"1685":-0.022037826236157805,"1686":0.013240527209118783,"1687":0.007276603136708522,"1688":-0.00019101854667438262,"1689":-0.025420989397954053,"1690":-0.011372473314103347,"1691":-0.03921915780989545,"1692":-0.0040955390183587195,"1693":-0.015266435465355568,"1694":0.03605694494415574,"1695":0.04234205695103308,"1696":-0.016335959957465267,"1697":-0.04184807440913408,"1698":0.038888773584044245,"1699":-0.013670993710535187,"1700":-0.011627216404034118,"1701":-0.05768793164112462,"1702":-0.03030982130468667,"1703":0.0009313280174154167,"1704":0.008054212568491731,"1705":-0.013039197622168019,"1706":-0.009630534799486272,"1707":0.019664728772149066,"1708":-0.006246894705271627,"1709":-0.031786384541442315,"1710":-0.023368650922043797,"1711":0.0323626717776081,"1712":0.016178547280933656,"1713":-0.005740801788549877,"1714":-0.0427524593018373,"1715":0.05505490094850855,"1716":-0.004410571412691505,"1717":-0.02899120927461545,"1718":0.0423197211771145,"1719":0.024819965376325578,"1720":0.03944427773498398,"1721":-0.0219104505114147,"1722":-0.017927761915780993,"1723":-0.014011107485169618,"1724":0.0007324406514068672,"1725":-0.05538785935364006,"1726":-0.014917867908691875,"1727":-0.03027016196961198,"1728":0.022784505753916738,"1729":0.009004242550012288,"1730":0.00017825729902711502,"1731":-0.057147201485455594,"1732":0.03273551673318471,"1733":0.005848496100244426,"1734":-0.01160375320426292,"1735":0.0017204697923175782,"1736":-0.019375428119929563,"1737":0.009139447370576776,"1738":0.0157453177489016,"1739":0.013240134877194736,"1740":0.023876772174353723,"1741":0.007990354334363462,"1742":-0.0015454273546987329,"1743":0.004483616115566138,"1744":-0.013294171485760065,"1745":-0.010216515097433683,"1746":-0.025720192401813096,"1747":-0.01475320532062711,"1748":-0.004291097792078522,"1749":-0.014472291293517063,"1750":-0.01142594945832698,"1751":-0.03581603863828026,"1752":0.007433573740052606,"1753":-0.0010755219713632668,"1754":0.0312913319496371,"1755":-0.037890445407432416,"1756":-0.009886515614415302,"1757":-0.0020633640945556643,"1758":0.000572371753169697,"1759":0.021692235766327103,"1760":-0.02444071114083649,"1761":-0.03662466479578397,"1762":-0.0042230116534325715,"1763":-0.001417655138669746,"1764":0.03270104338230179,"1765":0.0023417563682589715,"1766":-0.018345344243566503,"1767":-0.02780348521842039,"1768":-0.03316677242207854,"1769":-0.01790632122036967,"1770":-0.03796340873929917,"1771":-0.026662685290445055,"1772":0.025387451619054757,"1773":-0.03272961354789964,"1774":-0.0378029522092272,"1775":-0.007658037652941206,"1776":0.0198075349409417,"1777":0.044966552873318515,"1778":0.06384548656713704,"1779":-0.002214620767722697,"1780":-0.0334427437486313,"1781":-0.002197853232976335,"1782":-0.013463274282138425,"1783":-0.05323557860491177,"1784":0.03471861550210106,"1785":0.00009770112718510811,"1786":0.037993241545823106,"1787":-0.048818907576796966,"1788":-0.010048902761667457,"1789":0.015367238629382905,"1790":0.013662208036866715,"1791":0.024944578663804055}},{"sx":1,"sy":1,"depth":1792,"w":{"0":0.012981165675309084,"1":-0.012578325075633343,"2":0.07513493385514013,"3":0.04170082289205789,"4":0.011882018316450287,"5":0.0028029316812711036,"6":-0.01317487918796683,"7":-0.025963383272124274,"8":-0.05515872335260569,"9":0.0017255443573597447,"10":0.01269554398177984,"11":0.010306911484184327,"12":0.00031656233736401384,"13":0.02163164791672183,"14":0.019065898580217684,"15":0.013638072501770895,"16":-0.015262076788272697,"17":0.03581790231202431,"18":-0.01660641207964077,"19":0.01134898638205184,"20":0.0025188664609862394,"21":0.05022206979163335,"22":0.008794610239049792,"23":-0.03737707962551068,"24":-0.009890911109113018,"25":-0.002634672297931851,"26":-0.03217674687609863,"27":0.04325736698113616,"28":-0.015293878821944962,"29":0.011982808353621387,"30":0.0052820907404958735,"31":-0.005565888991960716,"32":-0.04646950684913922,"33":-0.006752769346916818,"34":0.03212493062273892,"35":0.007642335847919752,"36":-0.005355160628940297,"37":-0.02233599705159178,"38":0.008552272074341888,"39":0.011166811121735636,"40":0.003423338038616361,"41":0.015215666111856398,"42":0.01203254253265537,"43":-0.003875096916640204,"44":0.01808070029819652,"45":-0.012919055537508505,"46":-0.005789438324928065,"47":-0.026600525196305017,"48":-0.0020501944965194818,"49":0.005146771450053186,"50":-0.02949250378828749,"51":0.04962505372275367,"52":-0.00929628168749703,"53":-0.040426563285824633,"54":0.025742255986505945,"55":0.0005905078806437282,"56":-0.012638774052574924,"57":-0.04549432236797425,"58":0.00648197394747779,"59":0.011631158388511193,"60":0.04372092410513117,"61":0.001199833411145467,"62":-0.008625375120292128,"63":0.00944570823534179,"64":0.025352388193153327,"65":-0.020316090819768255,"66":0.04483996188642398,"67":0.01385497626096833,"68":0.022973103665364453,"69":-0.02066317604394049,"70":-0.005662813071408629,"71":0.007558767855811431,"72":-0.01672823906921983,"73":-0.02144950664369605,"74":0.006791981870016445,"75":-0.026587845396985648,"76":-0.025774049354909425,"77":0.011418561602666395,"78":-0.029564252975650046,"79":-0.018025031540798306,"80":-0.01471076099553943,"81":-0.01848154118115349,"82":-0.008649745759164535,"83":0.03705930477794268,"84":0.02325993281309417,"85":-0.016597632127438533,"86":-0.024511859853106336,"87":0.04331701118265737,"88":-0.001209203090136204,"89":-0.03762147792266369,"90":-0.007130355854060635,"91":0.014372037249604152,"92":-0.025241210661364193,"93":-0.06610083702927984,"94":-0.0060119390938943645,"95":-0.00937452123011312,"96":0.007082800336638312,"97":-0.018630633932790668,"98":0.0026842435030260776,"99":-0.03975705015481737,"100":0.0032433821857649594,"101":0.05264460848155875,"102":-0.015758698175059795,"103":0.0369900054563401,"104":-0.03271424574903918,"105":0.019337488020567326,"106":-0.01746789408406085,"107":-0.006835918640968197,"108":0.05396512947728957,"109":0.04386355418596411,"110":0.007832124982777716,"111":0.02252626933777762,"112":-0.02557848744398291,"113":0.00017157404295016002,"114":0.02825016979983168,"115":0.007581335051204017,"116":0.0005393566567159763,"117":-0.04612724651553677,"118":0.005635630803100244,"119":0.006803997271943879,"120":0.006187961602322687,"121":0.01085633153174958,"122":0.008408229866165092,"123":-0.019823600241706797,"124":0.02115563600151413,"125":-0.00819847083139789,"126":-0.02112580898403461,"127":0.00006454436646586381,"128":0.029702265186557775,"129":0.0005292566939871425,"130":0.015595127743122984,"131":0.007777257714676117,"132":-0.03745407339984446,"133":-0.01068213978911412,"134":-0.023834178900110498,"135":-0.005108709829711603,"136":0.04544699126480546,"137":-0.03363036821051988,"138":-0.014450375366756276,"139":0.021270547226505374,"140":0.0031880725130795087,"141":0.004191251847710869,"142":0.0210569154978674,"143":-0.029578983809265626,"144":0.015578545176566752,"145":0.015234249862406103,"146":-0.014379201742046977,"147":-0.013752072191186697,"148":-0.011440221825786315,"149":0.005332351760346679,"150":-0.02333966937387238,"151":0.00787765722272303,"152":-0.006554054035088104,"153":-0.016920174048436078,"154":-0.010247941915211646,"155":0.021652214357650662,"156":0.01360174579422829,"157":-0.05084885542620608,"158":0.019507674148824535,"159":0.00819618180712091,"160":0.031134332722820932,"161":-0.010883666899861321,"162":0.021210925716128884,"163":0.0234238952283762,"164":0.009491613281154483,"165":-0.007657376937774569,"166":-0.018746727080902796,"167":0.01040623050665151,"168":-0.006218373007879149,"169":-0.002366692338616441,"170":0.03123883363172735,"171":-0.042484586433742255,"172":-0.008666789655392151,"173":0.034886546823504824,"174":0.03360090136936147,"175":0.03532682241415408,"176":-0.011983622018944092,"177":0.014777072072424714,"178":-0.014538110981124874,"179":0.024412258273072533,"180":0.03858718347974899,"181":0.014239330721734245,"182":-0.017253296818469495,"183":-0.015473833630853048,"184":-0.026165099771989272,"185":0.023951760944046854,"186":0.029035343067202762,"187":-0.02030680847176798,"188":-0.007794191932778891,"189":0.007634289570729333,"190":0.005070945080571643,"191":-0.0019279683724066406,"192":-0.020158335768562158,"193":-0.021311593513784727,"194":-0.013833090807402639,"195":-0.021667949707289722,"196":-0.005174951895535181,"197":0.002034120235276007,"198":0.00805575322108048,"199":0.014285783792676997,"200":0.029360058273283633,"201":0.024016909037887106,"202":-0.009270787540484372,"203":0.0034055669817225557,"204":0.007214548356128975,"205":0.012476419085785609,"206":-0.005738214208773938,"207":0.028786991385801153,"208":0.007948008581605343,"209":0.019857231860448726,"210":0.018087472003610536,"211":0.019485246882395234,"212":0.030173714486180624,"213":-0.03230537767299765,"214":-0.027080881448002837,"215":-0.005742778838084924,"216":-0.001566479968534534,"217":-0.022120115338521592,"218":0.0034318621770956536,"219":-0.019777806281906153,"220":-0.02920110921601859,"221":-0.03956104100046454,"222":-0.017352669365572348,"223":-0.023438873579714057,"224":0.0194266457767465,"225":-0.0045515381659098665,"226":-0.0056067969390287565,"227":0.04870196779471819,"228":-0.0080371133699503,"229":0.052927739432696415,"230":0.016837625760127144,"231":0.007747945612733281,"232":0.06725971476885653,"233":-0.003318718339635552,"234":0.005958470661402308,"235":0.0387083878247907,"236":-0.01536450874898193,"237":0.031247406593875243,"238":-0.0027772970517069106,"239":0.049596733895441336,"240":0.008428354040044049,"241":-0.02755286586473662,"242":0.04074895750225462,"243":-0.003697899732714592,"244":0.032245866991514036,"245":-0.017493536145681624,"246":0.015128416986015756,"247":0.03380130869083161,"248":0.01713214409299946,"249":0.015223424146818031,"250":0.030883307354917545,"251":0.006036040178691448,"252":-0.0388239396661799,"253":-0.045645428649577276,"254":0.005687914731563001,"255":-0.028228586392143134,"256":0.0022889657425531756,"257":-0.003405635006749449,"258":-0.019392858288477435,"259":0.014388616894251501,"260":-0.034029827206518516,"261":0.004496281488485136,"262":-0.03479910327616255,"263":0.024556480739359413,"264":-0.01683978241913923,"265":-0.0027991292581833133,"266":-0.007935280751204553,"267":0.009896464110646638,"268":-0.006634230408707753,"269":0.013739002047026678,"270":0.0363497665297608,"271":-0.019227096972563012,"272":-0.007296862868054669,"273":-0.016134806006822277,"274":-0.031129042863233352,"275":-0.008613483746220648,"276":-0.034442063833739635,"277":0.03496674327482391,"278":0.002972231554023175,"279":-0.026988370298951302,"280":-0.01620290646424955,"281":-0.011128367528768125,"282":-0.04012556867254259,"283":-0.006694429261016284,"284":-0.020424190545044314,"285":-0.04140815220071296,"286":0.0011888883270205735,"287":-0.0008835248682336476,"288":0.04227392200465107,"289":0.028730612699489927,"290":-0.022841050923985026,"291":-0.009436756053109374,"292":0.0064514783194516,"293":-0.013511960842054962,"294":0.0012654166826018727,"295":-0.011620295065294908,"296":-0.019526555278688566,"297":-0.035163381158771864,"298":0.020295352613714863,"299":-0.02141316450627542,"300":0.043012045495835725,"301":0.04322790290719865,"302":-0.002759058766216759,"303":-0.003259022613084198,"304":0.04416945743698113,"305":-0.01579764729957822,"306":-0.0009667958950935124,"307":0.03547844224332596,"308":0.015381749248583819,"309":-0.012417115653531851,"310":0.04961692461088571,"311":-0.019306329550173647,"312":0.018036591822834635,"313":0.005160135213117727,"314":0.004173147686253542,"315":0.028104670896334255,"316":-0.020835427787494774,"317":-0.005562787089663104,"318":0.04955976066979723,"319":-0.01661635806511037,"320":0.02126118427995543,"321":0.014497062843166441,"322":0.006320423758721438,"323":-0.016801733057583826,"324":0.006452860302424568,"325":-0.027518340249448492,"326":-0.019153008522694737,"327":-0.01348427513527209,"328":-0.0017788843229894543,"329":-0.024897078358765746,"330":0.008720513492317311,"331":0.02515835787264931,"332":0.00027424673111996277,"333":-0.028218412237908202,"334":-0.018326353622413118,"335":-0.0043537681528986304,"336":-0.034285903057717865,"337":-0.023993787348243752,"338":-0.0012364699762783212,"339":0.013294076285999629,"340":-0.01807234021746137,"341":-0.0069005927605402945,"342":0.0016532753014431127,"343":0.0013382160680988269,"344":-0.013599791955143166,"345":0.03610309414146128,"346":-0.009501076527179063,"347":-0.02499594278618429,"348":-0.01247294016582928,"349":0.022512836407053663,"350":-0.015695095397060363,"351":0.041114227052170896,"352":0.021447210611370473,"353":-0.03522275950156208,"354":0.04596912795507781,"355":0.021217166370438238,"356":0.011147193836447107,"357":-0.039236389459697034,"358":-0.022040538635548047,"359":0.0385784189046192,"360":-0.02528432821902611,"361":0.0092584383552799,"362":-0.011484155090513886,"363":0.022793084455063225,"364":0.007452307923197557,"365":-0.007548045686196072,"366":-0.0002523624734810356,"367":0.010643365955550921,"368":0.024287216486537838,"369":-0.01380341000748712,"370":0.01684254274046381,"371":0.005317639471187882,"372":0.015141509145018175,"373":0.008036207371972815,"374":0.042721611201503654,"375":0.045156602064185286,"376":0.055024819885039836,"377":0.023765480150051553,"378":-0.002435425978645491,"379":-0.014549487163606864,"380":-0.00783146718707456,"381":0.018568074553343902,"382":-0.0025413253875518184,"383":0.0399516954887167,"384":0.0005405330792259427,"385":0.0003628207865141018,"386":-0.006621531807978817,"387":0.012504326081249803,"388":0.021114212113193778,"389":0.05237012001719366,"390":-0.0010556060457279598,"391":-0.005859799053990346,"392":-0.021102824482224718,"393":0.01258588408862822,"394":-0.008524981255026915,"395":-0.04695090797676498,"396":-0.029386653978798055,"397":-0.007487371690886408,"398":-0.013549728017177055,"399":-0.005965083981861783,"400":-0.019082672030528065,"401":0.02132346105473665,"402":-0.004246666302395628,"403":0.01715001111718764,"404":-0.0007592541606455807,"405":-0.014798237463267623,"406":0.007293234438879969,"407":-0.0104889225189327,"408":-0.028533522973488837,"409":-0.017994689696702308,"410":0.013930693005304102,"411":-0.017499942278000287,"412":-0.0020698476495117587,"413":0.011736939364652197,"414":-0.00036223050733240103,"415":-0.010089633435378137,"416":0.010868794188959589,"417":0.017700303777179148,"418":-0.01427000738839685,"419":-0.02060879054799249,"420":-0.03375819421525637,"421":0.00870597451014882,"422":-0.0010013362266519422,"423":0.04840872209095688,"424":0.001260902631091875,"425":0.0240189825565104,"426":-0.028037641026714064,"427":-0.0032430194254702504,"428":-0.00535285389715178,"429":-0.029714893487017995,"430":-0.015438544556304336,"431":0.021151529629787762,"432":0.004178311120428058,"433":0.04118578708250235,"434":-0.005673589318967097,"435":-0.05972289603644866,"436":-0.006723587178094895,"437":0.007227383860882368,"438":-0.01290621770848874,"439":-0.021357457752907195,"440":0.0303308305464934,"441":-0.04473898836185953,"442":-0.030928782039527716,"443":0.0497650187674349,"444":0.03227633052063767,"445":0.002822932039870419,"446":-0.0037451887839846866,"447":-0.0018578631339183777,"448":0.012739576455321838,"449":0.0043828018980142346,"450":-0.0031735121187046857,"451":-0.022212943199197803,"452":-0.004293223147946199,"453":-0.0043797889638151465,"454":0.004219336293991714,"455":0.018826176487020917,"456":0.019674207136096702,"457":-0.005735829896714735,"458":0.018057794652261778,"459":0.017593131816732756,"460":-0.032579369280791436,"461":-0.00702223263477044,"462":0.00019152890484952923,"463":-0.04241858925745719,"464":-0.04187771975630018,"465":0.0030210151614443645,"466":-0.009526035654612524,"467":-0.0502839585679675,"468":0.017392339659851194,"469":0.007526586573767692,"470":0.0039845714324435975,"471":-0.03317881804684954,"472":-0.010431841770296216,"473":-0.02058260103869754,"474":0.006777682281477636,"475":0.005891707688513993,"476":-0.0036144121772114226,"477":0.0021531762805892902,"478":-0.0290886268730077,"479":-0.0017451709430686085,"480":-0.019823309161066685,"481":0.01598461036783459,"482":-0.031749518483173346,"483":-0.02125667891174754,"484":-0.022359906302633355,"485":-0.051132480018486,"486":0.008996627892406035,"487":0.025554623052449016,"488":0.021377006982926057,"489":0.012539319371893776,"490":-0.021291172850274005,"491":0.025352706858139014,"492":0.005220748754988703,"493":-0.02587307559236752,"494":-0.013130137291437364,"495":-0.030491793193499542,"496":0.01619641192655548,"497":0.0005818205819866517,"498":-0.014163310296515099,"499":-0.0037288086560501223,"500":-0.004356025292848238,"501":-0.02990949559730249,"502":-0.03604991586605857,"503":-0.047003105265228544,"504":-0.0003828941687177583,"505":0.009506473516062507,"506":-0.015034788600572528,"507":0.00024253176759116282,"508":-0.0110567972556443,"509":0.018843916401962587,"510":-0.03278456399011718,"511":-0.01602196329156337,"512":0.00882966915603017,"513":0.014129874990669254,"514":-0.008028733577378728,"515":0.020904615427381458,"516":-0.020223853083141695,"517":0.0065810187429913986,"518":-0.02461240697795557,"519":0.03124124120260461,"520":-0.012456429647695067,"521":0.003650500419813191,"522":-0.031132835309936168,"523":0.009142646825065161,"524":-0.006127238435779041,"525":-0.023043904242022833,"526":0.009622120344019512,"527":0.003680972907014428,"528":-0.019056551748786264,"529":0.022821596047381345,"530":0.005901527096181286,"531":-0.0016695678778658508,"532":0.0420754535932911,"533":0.021628888249168813,"534":-0.004963334946800479,"535":0.011248706830278737,"536":0.038069738556648844,"537":-0.04159369461077046,"538":0.012924374734727724,"539":0.013748184269286073,"540":-0.002903506601388774,"541":0.0005366709205359571,"542":0.06347833006437689,"543":0.020190311088130068,"544":-0.0227916295080948,"545":0.03230387537844572,"546":0.009014274261147969,"547":0.016607968115963025,"548":0.004957097926171281,"549":0.028894224473420525,"550":-0.05991942766963889,"551":-0.00919959506874738,"552":0.005622815093731174,"553":-0.006681743717243819,"554":0.0237114002530688,"555":-0.015128867835284504,"556":-0.0223580932768149,"557":0.007874833338688655,"558":0.004217373554997776,"559":-0.04290238428340348,"560":0.003845337564279971,"561":0.028489152494167017,"562":0.01794608348542355,"563":0.0006678430355958881,"564":0.009204497252733052,"565":-0.02408578991772337,"566":0.025333295750833942,"567":0.03204758805973464,"568":0.03853980017199054,"569":0.026600072495696576,"570":-0.030761815259864597,"571":-0.01883755437454898,"572":0.009372696788124982,"573":-0.005484560073963563,"574":-0.024566199995437972,"575":0.003986070823115325,"576":0.024428724281446622,"577":-0.00630570122952109,"578":0.01663740337034937,"579":-0.0049980555100908475,"580":0.017864805537698068,"581":-0.011232110427258557,"582":-0.0018665587803746934,"583":0.012093876807759885,"584":-0.018025180801878364,"585":-0.007470192576186433,"586":0.025391520778868495,"587":0.0044778804020128415,"588":0.009163721558490477,"589":0.0031331286323330416,"590":0.010729938082213956,"591":0.010527089749261172,"592":-0.006979143894082188,"593":0.03370169241783139,"594":0.016281618440947363,"595":0.0023443341100119358,"596":-0.007331846935007663,"597":-0.018052246038931692,"598":0.02497257619754483,"599":-0.01863036991925868,"600":-0.0014034204488705161,"601":0.018004298555428958,"602":-0.0090361307549027,"603":0.02800110462753197,"604":-0.00309791846667433,"605":0.008194352188099847,"606":-0.028596223846834815,"607":-0.014288294713522168,"608":0.0012149480598195716,"609":0.020674128186980046,"610":0.03147777160406475,"611":0.019377214231191427,"612":-0.012822362123173886,"613":0.02692707452806923,"614":-0.028716423556045843,"615":0.024475105508121105,"616":0.030763918494511506,"617":-0.023303428923722697,"618":0.01678087593986156,"619":-0.006878351272927657,"620":0.012252298701301297,"621":-0.04430861168640554,"622":-0.007392189358581523,"623":0.02357022538723918,"624":-0.0012458397974022051,"625":0.01823417446638557,"626":0.001176253240172961,"627":-0.001688464186120007,"628":-0.011075400623797641,"629":-0.009869952895336412,"630":0.051663690475019966,"631":0.020300902346344737,"632":0.013562665966085364,"633":-0.0016872377444810355,"634":-0.0034325623491999616,"635":0.006660239891564384,"636":0.001637743792025754,"637":0.009329570866810416,"638":0.03128227832487644,"639":0.02212149922195233,"640":0.007546751737874375,"641":-0.003365490859497177,"642":0.04565364383732252,"643":0.0007240048094561019,"644":-0.06423971899639308,"645":0.06312752857563428,"646":0.03599492390658097,"647":0.010831299467765232,"648":0.04971590781423647,"649":0.06594719207182535,"650":-0.03597278626745918,"651":0.026581902138850363,"652":0.04512150168103758,"653":-0.02678819009278298,"654":-0.016156991063459056,"655":-0.01025183385871631,"656":0.02006498601247343,"657":-0.05764162440887228,"658":0.027888899188915014,"659":-0.00046467740542314323,"660":0.01533329896967486,"661":0.010651498856376448,"662":-0.017724657668664063,"663":-0.010865516278499462,"664":-0.03457174509136639,"665":-0.00012428016813963532,"666":0.029712140856215603,"667":-0.03501906490686952,"668":0.0027854564392820083,"669":-0.0031506284878677023,"670":0.01545738161099433,"671":-0.0063643449252458245,"672":0.004364774225415523,"673":-0.063124515576829,"674":-0.024498624947356527,"675":-0.017241059179784083,"676":0.024229022223110054,"677":-0.008566504454238287,"678":0.018095118275799307,"679":-0.010510804430448597,"680":-0.013302153431431908,"681":0.008347188976701515,"682":0.024590774403403345,"683":0.01479265215878852,"684":-0.020078834895847136,"685":0.030386552785739495,"686":0.01317825957585737,"687":-0.02134835561567125,"688":-0.03074359806194118,"689":0.014770842861852653,"690":-0.009005190176448997,"691":0.01385785512910839,"692":0.02052040659273254,"693":0.030257438884522397,"694":-0.0100445874687807,"695":-0.009106834746440423,"696":-0.03198140712439484,"697":0.0336948203855843,"698":0.0028505731078545763,"699":-0.007243721583180883,"700":0.024579465268045098,"701":0.030032058873673797,"702":-0.022915524479336136,"703":0.0008962614221699139,"704":0.027850895901199487,"705":0.007719493259712685,"706":0.008743394419816258,"707":0.032020517924507115,"708":0.012396715839783492,"709":0.012340198296124098,"710":0.030833627498411356,"711":0.01864402454542112,"712":0.03391536981197917,"713":0.0041068975592084885,"714":0.001755308401667186,"715":0.003877337121085522,"716":0.03871165775977278,"717":0.01090929051121839,"718":0.027365510916392798,"719":0.0035126391692866573,"720":0.006174494678875079,"721":-0.0027532813420150333,"722":0.0006825236112490443,"723":0.003766597052997574,"724":0.004375703302583274,"725":0.0021443245525520215,"726":-0.0058558379478239235,"727":0.009093230483504789,"728":0.000247839483172954,"729":-0.024717407597757656,"730":-0.044794619620142265,"731":0.015669082714177274,"732":-0.009322024253085526,"733":0.042560100828661775,"734":0.04073316733045002,"735":0.039406988844737305,"736":-0.034195418840041,"737":0.0019136446064596394,"738":-0.0031490655023543026,"739":-0.022169599598716686,"740":0.020325991945296364,"741":0.011196980747583457,"742":-0.0015959723133866892,"743":0.010427838986345072,"744":-0.034140184164374365,"745":-0.026738132053257473,"746":-0.020579673357731556,"747":-0.00031666461526836726,"748":0.009356369046408344,"749":0.01770963688843197,"750":-0.004364307469720972,"751":-0.005084251405403538,"752":-0.00047253683505835023,"753":0.01812442462735505,"754":0.005671265221310628,"755":-0.012526658457065309,"756":-0.013272855252901391,"757":-0.008225555470813299,"758":-0.03386545066379745,"759":0.012407027641662457,"760":0.00143402377204981,"761":-0.00821530484513347,"762":0.013065036526908113,"763":-0.022762542754166292,"764":-0.03220028005194371,"765":-0.01787648997312713,"766":0.023318432108264345,"767":0.01700373789021629,"768":0.00782090684138469,"769":0.02768246598334988,"770":0.025818737411787113,"771":-0.00648508742776304,"772":0.03072353852274443,"773":0.012179943314480376,"774":-0.007588402399037423,"775":0.026742288104132133,"776":-0.02831232203052751,"777":0.007286287625103268,"778":-0.01622228604754843,"779":0.007780201338446567,"780":0.04379098981283178,"781":0.009393471949983448,"782":-0.04883230158590992,"783":-0.031127976883086467,"784":0.009470517307034814,"785":-0.0024766756621492038,"786":-0.0021936630964168196,"787":-0.01969286849118255,"788":0.0030624078376493844,"789":-0.02081515029953132,"790":0.03035813610184571,"791":0.027258831899140298,"792":-0.0026947935335334093,"793":-0.030167102643691143,"794":0.049205400028945,"795":-0.026895214669214695,"796":-0.0421217866433813,"797":-0.018100902068992314,"798":-0.023580557292891692,"799":0.019408765765160797,"800":-0.028152118642865435,"801":-0.013554827080139607,"802":-0.030695654815053278,"803":0.013030698023494722,"804":0.007983928390055815,"805":-0.026936615767335553,"806":0.023251726089842325,"807":-0.04056590766499961,"808":0.03417032752879117,"809":-0.030859006620435,"810":-0.005257946274719173,"811":-0.01680659691396152,"812":-0.0022127419252294857,"813":-0.02437817405093292,"814":-0.005280650636259187,"815":0.018193280577529666,"816":0.007716471008513791,"817":0.017782762435819215,"818":-0.033998148227150686,"819":-0.017882398295369133,"820":-0.02335514691571348,"821":-0.021551998150124846,